tree
version=v4
num_class=1
num_tree_per_iteration=1
label_index=0
max_feature_idx=56
objective=regression
feature_names=temp_max temp_min precipitation_sum rain_sum precipitation_hours weather_code wind_speed_max wind_gusts_max temp_avg day_of_week day_of_year month year day_of_year_sin day_of_year_cos day_of_week_sin day_of_week_cos temp_avg_lag_1 temp_max_lag_1 temp_min_lag_1 precip_lag_1 rain_lag_1 temp_avg_lag_2 temp_max_lag_2 temp_min_lag_2 precip_lag_2 rain_lag_2 temp_avg_lag_3 temp_max_lag_3 temp_min_lag_3 precip_lag_3 rain_lag_3 temp_avg_lag_7 temp_max_lag_7 temp_min_lag_7 precip_lag_7 rain_lag_7 temp_avg_lag_14 temp_max_lag_14 temp_min_lag_14 precip_lag_14 rain_lag_14 temp_avg_avg_3d temp_max_avg_3d temp_min_avg_3d precip_avg_3d rain_avg_3d temp_avg_avg_7d temp_max_avg_7d temp_min_avg_7d precip_avg_7d rain_avg_7d temp_avg_avg_14d temp_max_avg_14d temp_min_avg_14d precip_avg_14d rain_avg_14d
feature_infos=[-0.29999999999999999:31.399999999999999] [-5:18.5] [0:51.600000000000001] [0:51.600000000000001] [0:24] [0:75] [3.5:52.299999999999997] [7.2000000000000002:92.5] [-2.0499999999999998:24.800000000000001] [0:6] [1:366] [1:12] [2022:2025] [-0.99999073973619002:0.99999073973619002] [-0.99996295911626565:1] [-0.97492791218182362:0.97492791218182362] [-0.90096886790241903:1] [-2.0499999999999998:24.800000000000001] [-0.29999999999999999:31.399999999999999] [-5:18.5] [0:51.600000000000001] [0:1] [-2.0499999999999998:24.800000000000001] [-0.29999999999999999:31.399999999999999] [-5:18.5] [0:51.600000000000001] [0:1] [-2.0499999999999998:24.800000000000001] [-0.29999999999999999:31.399999999999999] [-5:18.5] [0:51.600000000000001] [0:1] [-2.0499999999999998:24.800000000000001] [-0.29999999999999999:31.399999999999999] [-5:18.5] [0:51.600000000000001] [0:1] [-2.1499999999999999:24.800000000000001] [-0.29999999999999999:31.399999999999999] [-5.4000000000000004:18.5] [0:51.600000000000001] [0:1] [-0.68333333333333213:24.250000000000004] [2.0666666666666744:30.600000000000005] [-4.1666666666666634:17.900000000000002] [0:24.266666666666669] [0:1] [0.47142857142857142:23.114285714285721] [3.1714285714285717:29.557142857142853] [-2.9857142857142853:17.014285714285716] [0:14.400000000000002] [0:1] [1.5285714285714285:20.857142857142858] [4.371428571428571:26.62142857142857] [-2.1214285714285714:15.47857142857143] [0:9.5928571428571416] [0:1]
tree_sizes=2956 3466 2907 2685 2853 3379 2950 2727 2963 3376 2884 2771 3007 2911 3056 2920 2723 2989 2808 2898 2841 3427 3062 3096 3401 3318 3021 3658 3554 3602 3568 3598 3606 3623 3560 3695 3572 3576 3611 3653 3647 3636 3684 3661 3768 3709 3717 3778 3728 3750 3745 3752 3825 3721 3815 3748 3754 3720 3736 3858 3555 3861 3320 3607 3155 1825 2896 2058 2037 2761 1510 2261 2625 1822 1900 1924 1792 1414 1180 1447 1885 1800 1239 1396 1300 2210 1328 1531 1108 1180 1285 1420 1431 1159 1228 1230 1469 1317 1129 1207 1238 1155 1029 1081 1023 1250 1052 1212 1029 1506 1734 1044 1393 1334 1221 1666 1226 1042 1045 1052 1191 1404 1137 1289 1132 1819 1392 1386 1142 1117 1112 1106 1821 1489 1239 1067 1132 1245 1158 2473 1309 1017 1387 1089 1102 1647 1233 1241 1110 1134 2171 1277 1174 2175 1201 1021 1453 2242 1203 1233 1188 1045 1016 1097 1252 1363 1515 1136 2061 1225 1390 1030 1010 1156 1940 1499 1311 1328 1397 1352 1018 1218 1812 1049 1204 1460 1081 1433 1135 1974 2003 1002 1321 1666 1221 1303 1034 1845 2616 1620

Tree=0
num_leaves=34
num_cat=0
split_feature=8 8 8 8 8 8 8 8 8 8 8 8 8 8 8 8 8 8 8 8 8 8 8 8 8 8 8 8 8 8 8 8 8
split_gain=16462 3285.42 2207.6 525.349 456.333 327.628 270.565 70.904 70.4125 54.4113 51.2399 47.2377 40.9284 32.0843 30.6151 11.0333 9.53976 8.19425 3.41893 2.81103 1.96374 1.5077 0.870338 0.472432 0.410119 0.395127 0.272237 0.179478 0.162704 0.101819 0.0833099 0.080253 0.0535714
threshold=11.725000000000001 6.5500000000000016 16.375000000000004 9.1000000000000032 3.1750000000000003 19.450000000000003 13.9 10.425000000000002 5.0000000000000009 17.775000000000002 7.7250000000000005 1.1250000000000002 21.075000000000003 14.925000000000002 12.875000000000002 11.125000000000002 8.3750000000000018 9.8250000000000011 12.225000000000001 15.575000000000001 13.325000000000001 10.775000000000002 11.425000000000002 14.325000000000001 10.125000000000002 12.025000000000002 12.475000000000001 7.1750000000000016 9.5250000000000021 10.925000000000002 11.575000000000001 10.575000000000001 18.425000000000001
decision_type=2 2 2 2 2 2 2 2 2 2 2 2 2 2 2 2 2 2 2 2 2 2 2 2 2 2 2 2 2 2 2 2 2
left_child=1 4 6 10 11 9 14 17 -6 -4 27 -1 -7 23 18 21 -12 28 25 -15 -16 31 -17 -8 -19 -2 -20 -3 -5 -23 -24 -9 -11
right_child=2 3 5 7 8 12 13 15 -10 32 16 -13 -14 19 20 22 -18 24 26 -21 -22 29 30 -25 -26 -27 -28 -29 -30 -31 -32 -33 -34
leaf_value=10.225741497572505 11.260146054352191 10.828149726352091 11.71605834765559 11.046551771539496 10.588523787800701 11.971468226759852 11.458455504116262 11.142424999223014 10.732338757181276 11.797429318383827 10.927142049307824 10.428511214547601 12.170684175465915 11.555524478511355 11.366453831290951 11.208262823722938 10.991440305302245 11.099327641175146 11.305322326494341 11.616422681358065 11.413119223462965 11.174671575380161 11.23011802433294 11.50218900855967 11.124375792224885 11.28650684500518 11.331486628395549 10.87886245301088 11.073481956925789 11.187158584609598 11.242534411288304 11.157868863634786 11.873141434639868
leaf_weight=20 13.000000000000002 36 54 31 58 28 21 11.000000000000002 59 28 48 35 21 32 18 12.999999999999998 38 15.999999999999998 17 28 28 12.000000000000002 14.000000000000002 26 19 11.999999999999998 14.999999999999998 19 13.999999999999998 13.999999999999998 11.999999999999998 14.999999999999998 40
leaf_count=20 13 36 54 31 58 28 21 11 59 28 48 35 21 32 18 13 38 16 17 28 28 12 14 26 19 12 15 19 14 14 12 15 40
internal_value=11.2049 10.8667 11.6345 11.036 10.5602 11.8676 11.4443 11.1391 10.66 11.7885 10.9112 10.351 12.0609 11.5416 11.3426 11.192 10.9549 11.0792 11.2991 11.5854 11.3958 11.1657 11.227 11.484 11.1123 11.2735 11.3185 10.8442 11.0542 11.1811 11.2362 11.1508 11.8441
internal_weight=0 484 381 312 172 171 210 171 117 122 141 55 49 107 103 91 86 80 57 60 46 52 39 47 35 25 32 55 45 26 26 26 68
internal_count=865 484 381 312 172 171 210 171 117 122 141 55 49 107 103 91 86 80 57 60 46 52 39 47 35 25 32 55 45 26 26 26 68
is_linear=0
shrinkage=1


Tree=1
num_leaves=38
num_cat=0
split_feature=1 1 42 43 42 1 43 1 43 43 43 1 14 43 1 43 1 43 43 43 22 1 1 19 20 55 1 1 43 43 43 24 6 29 43 29 43
split_gain=12938.3 2357.08 2092.65 478.626 324.774 291.858 244.719 125.347 84.903 70.9293 58.2454 54.615 50.4666 41.3923 36.8382 27.2955 25.7005 25.2015 23.8982 21.6153 16.6656 15.6517 12.7625 10.946 9.70665 8.27241 7.68991 7.58567 7.50845 7.10605 6.74808 6.74633 6.53707 6.41492 5.55144 5.17544 3.43943
threshold=7.9500000000000011 2.8500000000000001 16.133333333333344 13.100000000000007 13.491666666666672 0.35000000000000003 24.350000000000005 4.8500000000000005 6.9166666666666705 8.9833333333333396 14.366666666666672 13.65 -0.57022117041332276 26.966666666666679 12.850000000000003 21.750000000000004 5.6500000000000012 9.8166666666666718 10.716666666666672 18.650000000000009 12.925000000000002 9.6500000000000004 6.3500000000000005 6.4500000000000011 0.15000000000000005 2.846428571428572 9.7500000000000018 -2.7499999999999996 22.283333333333342 20.516666666666683 16.083333333333346 -0.19999999999999998 20.650000000000002 5.8500000000000005 10.816666666666672 8.6500000000000004 7.5500000000000087
decision_type=2 2 2 2 2 2 2 2 2 2 2 2 2 2 2 2 2 2 2 2 2 2 2 2 2 2 2 2 2 2 2 2 2 2 2 2 2
left_child=1 5 4 7 10 8 11 17 27 31 21 15 24 -8 19 -4 35 -3 33 25 26 -2 -20 -18 -5 -6 30 -1 -13 -21 -12 -7 -25 -9 -11 -14 -33
right_child=2 3 6 12 14 9 13 18 -10 34 20 28 16 -15 -16 -17 23 -19 22 29 -22 -23 -24 32 -26 -27 -28 -29 -30 -31 -32 36 -34 -35 -36 -37 -38
leaf_value=-0.92368855869471611 -0.016065905106343221 -0.42321704976071917 0.39453847798295605 0.1370232341714489 0.26687286148910538 -0.47898751142757306 0.67802425939637945 -0.22108521469223963 -0.61350752878945147 -0.4367445355611479 0.088225202674307196 0.53714770521626831 -0.097762650407502788 0.87618612191066825 0.45147676033168826 0.51582673704879478 0.03343860800103568 -0.30729080536928455 -0.20166265119818469 0.29364228068571196 0.065491973690025573 0.074675497388593373 -0.1249652470371808 -0.030032580315977352 0.022966958928161609 0.17822915338196318 0.22121930708111912 -0.76108101844024056 0.63181862341250572 0.38773057431649643 0.17631356481661947 -0.62344569353055068 -0.097064912178528029 -0.30682311647322474 -0.35260053150710768 -0.18049498711652909 -0.51129163136431099
leaf_weight=12.999999999999998 34 24 33 12.000000000000002 19 14.999999999999998 33 23 32 24 12.000000000000002 34 15.000000000000002 17 10.999999999999998 37 14.999999999999998 51 38 41 15.999999999999998 25 33 37 10.999999999999998 19 15.999999999999998 21 27 10.999999999999998 18 23 15.999999999999998 13.999999999999998 21 10.999999999999998 12.999999999999998
leaf_count=13 34 24 33 12 19 15 33 23 32 24 12 34 15 17 11 37 15 51 38 41 16 25 33 37 11 19 16 21 27 11 18 23 16 14 21 11 13
internal_value=0 -0.315624 0.361853 -0.170316 0.181706 -0.584089 0.582294 -0.258509 -0.726981 -0.484357 0.0848424 0.517449 -0.0321196 0.749065 0.29728 0.460128 -0.0605275 -0.345574 -0.197433 0.277329 0.143853 0.0224778 -0.166557 -0.0320074 0.0833343 0.223925 0.170603 -0.82898 0.581256 0.315176 0.14208 -0.557121 -0.050641 -0.25525 -0.399479 -0.134108 -0.586436
internal_weight=0 462 403 300 222 162 181 183 66 96 121 131 117 50 101 70 94 75 108 90 62 59 71 68 23 38 46 34 61 52 30 51 53 37 45 26 36
internal_count=865 462 403 300 222 162 181 183 66 96 121 131 117 50 101 70 94 75 108 90 62 59 71 68 23 38 46 34 61 52 30 51 53 37 45 26 36
is_linear=0
shrinkage=0.0874049


Tree=2
num_leaves=33
num_cat=0
split_feature=8 8 8 8 8 8 8 8 8 8 8 8 8 8 8 8 8 8 8 8 8 8 8 8 8 8 8 8 8 8 8 8
split_gain=11495.4 2275.22 1574.07 370.392 311.187 219.357 218.253 43.6275 43.3266 42.2208 39.1101 33.4767 28.2078 22.5769 20.7352 6.67268 4.92942 4.7003 4.08256 3.50687 2.04563 1.7974 1.76716 0.814781 0.750866 0.560967 0.541748 0.530504 0.400971 0.398508 0.245821 0.00207644
threshold=11.675000000000002 6.3750000000000009 16.600000000000005 9.2250000000000014 3.1750000000000003 13.9 19.750000000000004 7.8250000000000011 10.575000000000001 4.8500000000000014 18.225000000000005 1.3750000000000002 15.125000000000002 12.925000000000002 21.650000000000002 9.9750000000000014 11.125000000000002 8.5000000000000018 7.0750000000000011 12.225000000000001 15.750000000000002 17.175000000000001 14.475000000000001 5.7750000000000012 13.525000000000002 10.825000000000001 11.425000000000002 9.5750000000000011 12.025000000000002 12.575000000000001 10.325000000000001 8.8750000000000018
decision_type=2 2 2 2 2 2 2 2 2 2 2 2 2 2 2 2 2 2 2 2 2 2 2 2 2 2 2 2 2 2 2 2
left_child=1 4 5 7 11 13 10 18 15 -6 21 -1 22 19 -8 27 25 -9 -3 28 -14 -4 -7 -11 -15 -10 -18 -5 -2 -21 -17 -19
right_child=2 3 6 8 9 12 14 17 16 23 -12 -13 20 24 -16 30 26 31 -20 29 -22 -23 -24 -25 -26 -27 -28 -29 -30 -31 -32 -33
leaf_value=-0.80952453240882993 0.044793389983191295 -0.32122779972632626 0.40621839459786696 -0.12710710573150555 -0.51688586030581829 0.21425799008323787 0.67862710593396036 -0.2209640759855985 -0.037812169313223475 -0.42737149813512004 0.56140731506167618 -0.64307573798297779 0.30379015009752042 0.14642229286818498 0.85628908764818901 -0.076059740835704201 0.0023887190877693704 -0.18234918004541439 -0.26789231017520077 0.086271902239751286 0.35686059381785756 0.47122308349855097 0.25901063946618119 -0.37217089122324315 0.18089198096535283 -0.016759408394445001 0.024949521385358556 -0.10111686112487042 0.06885495442450093 0.1114198712031608 -0.057530579612429668 -0.15378338476252237
leaf_weight=23 16.000000000000004 34 21 31 55 24 28 38 20 30 54 32 30 23 12.999999999999998 21 12.999999999999998 23 39 20 29 47 32 28 19 21 23 18 11.999999999999998 15.999999999999998 17 14.999999999999998
leaf_count=23 16 34 21 31 55 24 28 38 20 30 54 32 30 23 13 21 13 23 39 20 29 47 32 28 19 21 23 18 12 16 17 15
internal_value=0 -0.284636 0.356504 -0.145171 -0.543916 0.204182 0.562448 -0.244829 -0.0544013 -0.459011 0.501718 -0.715736 0.287746 0.113081 0.739377 -0.0965854 -0.0065633 -0.197149 -0.293677 0.0798557 0.331173 0.452588 0.240809 -0.402305 0.162955 -0.0272412 0.0169386 -0.118116 0.055662 0.0981408 -0.068224 -0.17211
internal_weight=0 481 384 313 168 221 163 149 164 113 122 55 115 106 41 87 77 76 73 64 59 68 56 58 42 41 36 49 28 36 38 38
internal_count=865 481 384 313 168 221 163 149 164 113 122 55 115 106 41 87 77 76 73 64 59 68 56 58 42 41 36 49 28 36 38 38
is_linear=0
shrinkage=0.0874049


Tree=3
num_leaves=31
num_cat=0
split_feature=8 8 8 8 8 8 8 8 8 8 8 8 8 8 8 8 8 8 8 8 8 8 8 8 8 8 8 8 8 8
split_gain=9587.88 1897.21 1313.24 308.843 260.239 196.002 167.685 36.7252 36.1556 33.0229 31.5912 30.152 29.4441 19.4905 18.8826 6.45183 5.55696 4.1547 2.21917 1.92548 1.35054 1.09107 0.868827 0.625945 0.470947 0.372583 0.304404 0.189751 0.178983 0.0277203
threshold=11.675000000000002 6.3750000000000009 16.450000000000003 9.2250000000000014 3.3250000000000006 19.300000000000004 13.9 7.7250000000000005 10.575000000000001 0.85000000000000009 5.1250000000000009 21.275000000000002 17.825000000000003 15.075000000000001 12.725000000000001 8.5000000000000018 9.8750000000000018 11.025000000000002 13.175000000000002 12.125000000000002 4.3500000000000005 14.325000000000001 15.575000000000001 11.425000000000002 7.0250000000000012 10.225000000000001 10.825000000000001 9.5750000000000011 12.325000000000001 8.0750000000000028
decision_type=2 2 2 2 2 2 2 2 2 2 2 2 2 2 2 2 2 2 2 2 2 2 2 2 2 2 2 2 2 2
left_child=1 4 6 7 9 12 14 24 16 -1 20 -7 -4 21 19 29 27 26 -16 -2 -6 -8 -15 -19 -3 -18 -10 -5 -21 -9
right_child=2 3 5 8 10 11 13 15 17 -11 -12 -13 -14 22 18 -17 25 23 -20 28 -22 -23 -24 -25 -26 -27 -28 -29 -30 -31
leaf_value=-0.76474263271859921 0.042626881264058405 -0.29519270076707921 0.39105227168828227 -0.11607718664594044 -0.48916848976661886 0.58812893847355974 0.19277187988932898 -0.22103102421353213 -0.03454388241316652 -0.59515476434899217 -0.36168331858165731 0.75340742175210607 0.4871276197399626 0.2703261622591393 0.11176609019242495 -0.15724482378547153 -0.07553124879787354 0.00055156573704221682 0.15574792693718412 0.067228907982619407 -0.42415444921822609 0.23233558557217768 0.31469680562368219 0.022789888245118853 -0.25642002771015893 -0.055658272398881471 -0.017740613698537539 -0.094138893389051792 0.08592169286377406 -0.19198369287089226
leaf_weight=17 18 31 54 31 33 32 21 28 20 41 52 19 64 26 17 38 18 17 34 14.999999999999998 25 32 30 23 28 24 17 13.999999999999998 22 24
leaf_count=17 18 31 54 31 33 32 21 28 20 41 52 19 64 26 17 38 18 17 34 15 25 32 30 23 28 24 17 14 22 24
internal_value=0 -0.259939 0.325595 -0.132584 -0.496703 0.50781 0.181973 -0.223587 -0.0496969 -0.647662 -0.415927 0.652785 0.444009 0.258063 0.103326 -0.187365 -0.0882325 -0.00599365 0.141691 0.0672722 -0.462933 0.217587 0.295303 0.0134582 -0.277877 -0.0645923 -0.0270459 -0.10981 0.0788636 -0.208557
internal_weight=0 481 384 313 168 169 215 149 164 58 110 51 118 109 106 90 87 77 51 55 58 53 56 40 59 42 37 45 37 52
internal_count=865 481 384 313 168 169 215 149 164 58 110 51 118 109 106 90 87 77 51 55 58 53 56 40 59 42 37 45 37 52
is_linear=0
shrinkage=0.0874049


Tree=4
num_leaves=32
num_cat=0
split_feature=8 8 8 8 8 8 8 8 8 8 8 8 8 8 8 8 8 8 8 8 8 8 8 8 8 8 8 8 8 8 8
split_gain=7996.13 1582.17 1095.76 246.715 228.338 154.178 152.371 36.4574 31.1888 30.1731 27.9604 21.5111 18.4859 17.1054 12.7792 4.6669 4.07667 3.4949 2.9969 2.46194 2.22939 2.06827 1.64435 1.10062 0.53765 0.44845 0.338587 0.19393 0.189903 0.164391 0.106967
threshold=11.675000000000002 6.5500000000000016 16.600000000000005 9.2250000000000014 2.9250000000000007 19.875000000000004 14.025000000000002 4.7250000000000005 18.275000000000002 10.575000000000001 7.9750000000000005 0.55000000000000004 12.925000000000002 15.275000000000002 21.925000000000004 9.9750000000000014 7.3750000000000009 11.175000000000002 5.825000000000002 12.175000000000002 17.375000000000004 8.7250000000000014 14.775000000000002 13.575000000000001 10.825000000000001 12.575000000000001 9.5750000000000011 10.375000000000002 11.475000000000001 15.925000000000002 10.975000000000001
decision_type=2 2 2 2 2 2 2 2 2 2 2 2 2 2 2 2 2 2 2 2 2 2 2 2 2 2 2 2 2 2 2
left_child=1 4 6 10 11 8 12 -6 20 15 16 -1 19 22 -7 26 -3 24 -9 -2 -4 -12 -8 -14 -11 -21 -5 -17 -19 -15 -26
right_child=2 3 5 9 7 14 13 18 -10 17 21 -13 23 29 -16 27 -18 28 -20 25 -22 -23 -24 -25 30 -27 -28 -29 -30 -31 -32
leaf_value=-0.70886719013707122 0.042798710688939944 -0.25833857774221158 0.34477329664122908 -0.10600440777551137 -0.43754104284776968 0.57401119808346224 0.19200420759452289 -0.35738739401173925 0.47484739965742601 -0.0315580900646074 -0.17234172444079618 -0.55709222790120505 0.12346693603901956 0.26236844880522403 0.72422271948040862 -0.062294529196412103 -0.21002355937599948 0.008506496199419759 -0.30204734669224137 0.070103608747368498 0.39926460352509274 -0.13444717134666062 0.23194460149763332 0.15733659953754628 -0.017373201527674791 0.093156832095429049 -0.084617730546884637 -0.045343440582588129 0.022968013736384799 0.30281908392237494 -0.0055992426313012551
leaf_weight=14.999999999999998 23 44 28 31 54 26 35 38 53 20 43 37 26 27 11.999999999999998 25 34 13.000000000000002 28 25 44 24 25 21 14.000000000000002 15.999999999999998 18 12.999999999999998 18 23 11.999999999999998
leaf_count=15 23 44 28 31 54 26 35 38 53 20 43 37 26 27 12 25 34 13 28 25 44 24 25 21 14 16 18 13 18 23 12
internal_value=0 -0.237393 0.297332 -0.11896 -0.449712 0.469161 0.170239 -0.381924 0.42058 -0.0454015 -0.201941 -0.603781 0.0976514 0.243116 0.625488 -0.080605 -0.237974 -0.00547423 -0.335052 0.0666234 0.379247 -0.1593 0.209491 0.13933 -0.0207455 0.0796205 -0.0986219 -0.0568629 0.0170904 0.282297 -0.0121313
internal_weight=0 481 384 309 172 163 221 120 125 164 145 52 111 110 38 87 78 77 66 64 72 67 60 47 46 41 49 38 31 50 26
internal_count=865 481 384 309 172 163 221 120 125 164 145 52 111 110 38 87 78 77 66 64 72 67 60 47 46 41 49 38 31 50 26
is_linear=0
shrinkage=0.0874049


Tree=5
num_leaves=38
num_cat=0
split_feature=0 0 42 1 0 0 0 0 1 1 0 1 1 0 1 1 0 0 1 1 1 1 0 0 0 0 1 0 0 1 0 0 1 1 1 1 0
split_gain=6486.33 1276.19 838.683 211.472 183.408 161.541 111.885 52.349 41.7687 40.4339 36.2599 27.9863 26.5514 23.5405 22.3789 20.4109 14.7494 8.63529 8.1954 8.05509 8.03019 7.68757 6.1556 4.95679 4.80256 4.7241 2.90208 2.79941 2.38738 2.28361 1.86975 1.83203 1.77976 1.68119 1.58087 1.34174 0.491206
threshold=15.450000000000001 9.3500000000000032 16.133333333333344 5.7500000000000009 5.9500000000000011 23.050000000000004 18.300000000000001 12.350000000000003 9.1500000000000004 2.3500000000000001 28.550000000000004 3.5500000000000003 -1.2499999999999998 20.250000000000004 9.9500000000000011 8.9500000000000011 11.950000000000001 20.950000000000003 12.950000000000001 4.5500000000000007 6.3500000000000005 14.050000000000002 11.050000000000002 19.250000000000004 13.550000000000002 11.350000000000003 10.550000000000002 13.850000000000003 16.250000000000004 7.5500000000000007 13.050000000000002 10.750000000000002 7.3500000000000005 1.0000000180025095e-35 13.350000000000003 7.6500000000000012 17.150000000000002
decision_type=2 2 2 2 2 2 2 2 2 2 2 2 2 2 2 2 2 2 2 2 2 2 2 2 2 2 2 2 2 2 2 2 2 2 2 2 2
left_child=1 4 6 11 12 13 8 22 20 33 21 25 -1 34 23 24 31 -16 -15 -11 -2 -7 -5 -8 32 -3 36 -17 -22 -26 -18 -13 -9 -6 -4 -24 -10
right_child=2 3 5 7 9 10 14 15 26 19 -12 16 -14 18 17 27 30 -19 -20 -21 28 -23 35 -25 29 -27 -28 -29 -30 -31 -32 -33 -34 -35 -36 -37 -38
leaf_value=-0.61938043184999814 -0.0094567530078695089 -0.27607737664917747 0.23518943360147476 -0.15443797852317986 -0.42896475334462181 0.42718787181490298 0.11873590982913579 -0.080242698375733681 0.10541483809880799 -0.31243340299157496 0.65932963528954647 -0.21691215148554205 -0.47871184895029301 0.30503375820785661 0.23488284548218968 0.013528429920081337 -0.14070813008087929 0.32607586150299356 0.38292910370999972 -0.23368201605543643 0.036963301814196395 0.50858206841939768 -0.10700474527838331 0.192793106879488 -0.036312853046962745 -0.21377326136208852 0.16738940626315307 0.060640233353575795 0.078147269014525053 0.0022110042318498105 -0.094556278552302656 -0.17138135628167814 -0.03935102258865586 -0.36822131484446574 0.29651933223620608 -0.069113509848017979 0.13899551755586353
leaf_weight=22 17 24 18.000000000000004 21 23 31 11.999999999999998 21 14.000000000000002 37 10.999999999999998 20 35 22 33 20 13.999999999999998 13.999999999999998 50 20 20 36 23 25 30 28 28 19 26 19 20 25 14.999999999999998 32 12.999999999999998 13.999999999999998 12.999999999999998
leaf_count=22 17 24 18 21 23 31 12 21 14 37 11 20 35 22 33 20 14 14 50 20 20 36 23 25 30 28 28 19 26 19 20 25 15 32 13 14 13
internal_value=0 -0.213298 0.268434 -0.108643 -0.406709 0.405006 0.145733 -0.0475737 0.0905382 -0.34032 0.500708 -0.193242 -0.535267 0.331577 0.22279 -0.015418 -0.159439 0.263522 0.360185 -0.285871 0.0416618 0.472512 -0.115952 0.169704 -0.039423 -0.243641 0.146081 0.0367614 0.0605631 -0.021381 -0.114433 -0.19265 -0.0636247 -0.39531 0.262937 -0.0932397 0.12269
internal_weight=0 482 383 313 169 181 202 182 118 112 78 131 57 103 84 124 79 47 72 57 63 67 58 37 85 52 55 39 46 49 34 45 36 55 31 37 27
internal_count=865 482 383 313 169 181 202 182 118 112 78 131 57 103 84 124 79 47 72 57 63 67 58 37 85 52 55 39 46 49 34 45 36 55 31 37 27
is_linear=0
shrinkage=0.0874049


Tree=6
num_leaves=33
num_cat=0
split_feature=8 8 8 8 8 8 8 8 8 8 8 8 8 8 8 8 8 8 8 8 8 8 8 8 8 8 8 8 8 8 8 8
split_gain=5569.54 1163.89 704.302 196.214 153.131 107.24 93.9121 28.9511 25.8448 25.1076 19.1845 18.9835 12.3319 10.0392 3.44924 2.8128 2.67786 2.24687 1.97785 1.53222 1.37887 1.07052 0.921033 0.886415 0.740668 0.497512 0.394322 0.274766 0.268204 0.163563 0.0556303 0.0283397
threshold=11.925000000000002 6.8750000000000009 16.700000000000003 3.6250000000000004 9.4750000000000014 20.225000000000005 14.225000000000001 1.8750000000000002 5.5250000000000012 18.525000000000002 8.1250000000000018 10.675000000000002 13.050000000000002 15.275000000000002 21.925000000000004 8.8750000000000018 11.325000000000001 9.9750000000000014 1.0000000180025095e-35 17.475000000000005 7.6000000000000005 4.3500000000000005 12.575000000000001 13.575000000000001 6.0750000000000011 15.925000000000002 10.375000000000002 11.025000000000002 14.775000000000002 11.575000000000001 12.225000000000001 10.875000000000002
decision_type=2 2 2 2 2 2 2 2 2 2 2 2 2 2 2 2 2 2 2 2 2 2 2 2 2 2 2 2 2 2 2 2
left_child=1 3 6 7 10 9 12 18 21 19 20 17 22 28 -7 -12 27 -6 -1 -4 -3 -5 30 -14 -10 -15 -19 31 -8 -18 -2 -13
right_child=2 4 5 8 11 14 13 -9 24 -11 15 16 23 25 -16 -17 29 26 -20 -21 -22 -23 -24 -25 -26 -27 -28 -29 -30 -31 -32 -33
leaf_value=-0.61928522019793486 0.047522785828977836 -0.20104631986799748 0.29834398231535375 -0.36366105581814828 -0.075546776113919051 0.49504983466394814 0.16491867374501229 -0.42473467379944674 -0.27144467132540673 0.40774351129460712 -0.13533358107423779 -0.020483766809560194 0.1065675175003739 0.21894623269019151 0.60766975757431896 -0.098936463620585974 0.013302886854097688 -0.052375785931772244 -0.50772950255608074 0.34230827663607138 -0.16762932622390855 -0.31583575413106102 0.080193116392372296 0.13591060726646251 -0.2341894733333415 0.25498437953726105 -0.034938892188856145 -0.0013551243062814367 0.19336881886743096 0.025508980376238603 0.060146764664925946 -0.013169164596948401
leaf_weight=11.000000000000002 14.999999999999998 33 35 25 30 19.000000000000004 25 37 28 52 43 12.000000000000002 21 27 11.999999999999998 34 17 25 18 41 35 39 21 31 33 27 23 13.999999999999998 25 22 20 14.999999999999998
leaf_count=11 15 33 35 25 30 19 25 37 28 52 43 12 21 27 12 34 17 25 18 41 35 39 21 31 33 27 23 14 25 22 20 15
internal_value=0 -0.192149 0.255859 -0.361011 -0.085508 0.394854 0.151294 -0.483506 -0.295562 0.358121 -0.150304 -0.0258984 0.093859 0.210582 0.542782 -0.11963 0.00399824 -0.0565179 -0.554563 0.323033 -0.184492 -0.335763 0.0648674 0.124619 -0.252265 0.237994 -0.0442753 -0.0115296 0.179996 0.0203603 0.0551466 -0.0166564
internal_weight=0 494 371 191 303 159 212 66 125 128 145 158 108 104 31 77 80 78 29 76 68 64 56 52 61 54 48 41 50 39 35 27
internal_count=865 494 371 191 303 159 212 66 125 128 145 158 108 104 31 77 80 78 29 76 68 64 56 52 61 54 48 41 50 39 35 27
is_linear=0
shrinkage=0.0874049


Tree=7
num_leaves=30
num_cat=0
split_feature=8 8 8 8 8 8 8 8 8 8 8 8 8 8 8 8 8 8 8 8 8 8 8 8 8 8 8 8 8
split_gain=4646.05 971.115 587.605 164.401 127.938 87.906 83.0994 31.3954 20.1779 16.8301 16.171 11.5102 11.2432 10.1991 3.11959 2.96035 2.23849 1.69413 1.15514 1.02739 0.978448 0.757538 0.715749 0.32649 0.229234 0.14312 0.135304 0.0430849 0.0228609
threshold=11.925000000000002 6.8750000000000009 16.875000000000004 3.8500000000000001 9.3250000000000011 14.275000000000002 20.225000000000005 1.8750000000000002 10.675000000000002 18.675000000000001 5.6250000000000009 8.1250000000000018 13.175000000000002 15.525000000000002 9.9750000000000014 21.650000000000002 11.325000000000001 1.0000000180025095e-35 7.4750000000000005 8.7750000000000021 12.575000000000001 14.775000000000002 13.725000000000001 10.375000000000002 11.025000000000002 9.7250000000000014 11.575000000000001 12.225000000000001 10.875000000000002
decision_type=2 2 2 2 2 2 2 2 2 2 2 2 2 2 2 2 2 2 2 2 2 2 2 2 2 2 2 2 2
left_child=1 3 5 7 11 12 9 17 14 -4 -5 18 20 21 25 -8 24 -1 -3 -13 27 -7 -14 -16 28 -6 -18 -2 -10
right_child=2 4 6 10 8 13 15 -9 16 -11 -12 19 22 -15 23 -17 26 -19 -20 -21 -22 -23 -24 -25 -26 -27 -28 -29 -30
leaf_value=-0.56623916331416757 0.043430305365068554 -0.18509938857952896 0.30104700559405145 -0.29596279206823123 -0.078138372940825707 0.15191287244358673 0.44945872921094004 -0.38099196164986826 -0.018726261443075001 0.37379684562941745 -0.22641309354138217 -0.12560961985560856 0.10420044641108359 0.22894485223336175 -0.047838624356839103 0.55161977415058971 0.012155302506606456 -0.46389807090952045 -0.15427508399573361 -0.098215106975811137 0.074880867059314377 0.18265954489581204 0.13065546295601319 -0.031914577587963018 -0.0012385489702616238 -0.061537611156274576 0.023301889838037305 0.054947991770865061 -0.012035086874496108
leaf_weight=11.000000000000002 14.999999999999998 30 70 61 30 22 18.000000000000004 46 12.000000000000002 50 55 38 28 49 25 12.999999999999998 17 18 38 25 24 38 24 23 13.999999999999998 13.999999999999998 22 20 14.999999999999998
leaf_count=11 15 30 70 61 30 22 18 46 12 50 55 38 28 49 25 13 17 18 38 25 24 38 24 23 14 14 22 20 15
internal_value=0 -0.175499 0.233684 -0.329744 -0.0780886 0.142302 0.366398 -0.431061 -0.028438 0.332022 -0.26351 -0.143099 0.0872359 0.198061 -0.0563043 0.49604 0.00364412 -0.506856 -0.168476 -0.115167 0.0606435 0.172037 0.116969 -0.0404456 -0.0105494 -0.0732535 0.0186059 0.0503929 -0.015233
internal_weight=0 494 371 191 303 220 151 75 172 120 116 131 111 109 92 31 80 29 68 63 59 60 52 48 41 44 39 35 27
internal_count=865 494 371 191 303 220 151 75 172 120 116 131 111 109 92 31 80 29 68 63 59 60 52 48 41 44 39 35 27
is_linear=0
shrinkage=0.0874049


Tree=8
num_leaves=33
num_cat=0
split_feature=8 8 8 8 8 8 8 8 8 8 8 8 8 8 8 8 8 8 8 8 8 8 8 8 8 8 8 8 8 8 0 8
split_gain=3875.04 770.206 533.113 123.783 111.791 93.6161 59.8909 18.8291 17.6984 14.6189 14.6152 11.3473 9.84172 7.10191 6.08698 2.9955 2.30172 1.95001 1.68037 0.810659 0.523663 0.430373 0.358202 0.25879 0.227999 0.123097 0.085223 0.0433113 0.0370808 0.0346485 0.034646 0.0230787
threshold=11.675000000000002 6.3750000000000009 16.150000000000002 9.2250000000000014 2.6750000000000007 19.075000000000006 13.725000000000001 21.075000000000003 4.4750000000000005 10.575000000000001 7.6000000000000005 17.625000000000004 1.0000000180025095e-35 14.775000000000002 12.725000000000001 8.3000000000000025 9.7750000000000021 5.6250000000000009 11.175000000000002 12.125000000000002 13.175000000000002 17.050000000000004 15.275000000000002 10.225000000000001 10.875000000000002 8.7750000000000021 11.475000000000001 12.325000000000001 10.975000000000001 7.0750000000000011 13.850000000000003 14.175000000000002
decision_type=2 2 2 2 2 2 2 2 2 2 2 2 2 2 2 2 2 2 2 2 2 2 2 2 2 2 2 2 2 2 2 2
left_child=1 4 6 10 12 11 14 -7 -6 16 29 21 -1 31 19 -12 -5 -10 24 -2 -16 -4 -15 -18 30 -17 -20 -21 -26 -3 -11 -8
right_child=2 3 5 9 8 7 13 -9 17 18 15 -13 -14 22 20 25 23 -19 26 27 -22 -23 -24 -25 28 -27 -28 -29 -30 -31 -32 -33
leaf_value=-0.51773688139506935 0.026714161922594595 -0.18646639648578425 0.22328762345443315 -0.072110883936747375 -0.31378860632826788 0.36591252766467319 0.11629010099572741 0.48123276679331034 -0.25763502615793415 -0.025138261067292899 -0.13654017293291545 0.30067135837113734 -0.40045135888617472 0.16079457468556535 0.071251556734099886 -0.10992167136091054 -0.049886657107707601 -0.21751936808793776 0.0059476232570531244 0.043253116843940627 0.09516524938724337 0.25791966899582641 0.18758352303343009 -0.035221688403978837 -0.011772220755856291 -0.091772380531178921 0.015788496368278969 0.05454685027762475 -0.0043155344535034165 -0.16177407111190678 -0.016010810520642502 0.13660927566745729
leaf_weight=10.999999999999998 18 34 30 39 47 39 18 21 41 11.000000000000002 46 59 37 25 17 27 24 32 13.000000000000002 14.999999999999998 28 28 36 24 12.000000000000002 20 18 22 11.999999999999998 22 10.999999999999998 28
leaf_count=11 18 34 30 39 47 39 18 21 41 11 46 59 37 25 17 27 24 32 13 15 28 28 36 24 12 20 18 22 12 22 11 28
internal_value=0 -0.16525 0.206995 -0.0841014 -0.316107 0.31831 0.111558 0.407961 -0.269945 -0.0316191 -0.141716 0.271621 -0.429667 0.156996 0.0626708 -0.119767 -0.0561235 -0.240806 -0.00381634 0.0427847 0.0865864 0.240981 0.177276 -0.0428054 -0.014413 -0.102726 0.0118162 0.0503257 -0.00822428 -0.177496 -0.0208977 0.129317
internal_weight=0 481 384 313 168 177 207 60 120 164 149 117 48 107 100 93 87 73 77 55 45 58 61 48 46 47 31 37 24 56 22 46
internal_count=865 481 384 313 168 177 207 60 120 164 149 117 48 107 100 93 87 73 77 55 45 58 61 48 46 47 31 37 24 56 22 46
is_linear=0
shrinkage=0.0874049


Tree=9
num_leaves=38
num_cat=0
split_feature=0 0 42 1 0 0 0 0 1 0 1 1 1 0 1 1 0 0 1 1 0 1 1 0 0 0 1 0 0 1 1 0 0 1 1 0 1
split_gain=3140.92 619.3 404.427 110.785 80.1456 79.8687 54.4145 27.2356 20.2041 20.1838 15.8262 15.3582 13.613 11.4379 10.8048 9.80898 7.97869 4.30132 4.01741 3.87741 3.5464 3.51659 3.47651 3.39343 2.35092 2.30649 1.66197 1.45606 1.26546 1.2578 1.12135 1.0207 0.929496 0.855843 0.825873 0.704341 0.676824
threshold=15.450000000000001 9.1500000000000004 16.133333333333344 5.7500000000000009 5.9500000000000011 23.050000000000004 18.300000000000001 12.350000000000003 9.1500000000000004 28.550000000000004 3.5500000000000003 1.6500000000000001 -0.44999999999999996 20.250000000000004 9.9500000000000011 8.9500000000000011 11.950000000000001 19.950000000000003 14.250000000000002 6.4500000000000011 11.350000000000003 12.950000000000001 4.5500000000000007 11.050000000000002 13.550000000000002 19.450000000000003 11.550000000000002 13.250000000000002 16.250000000000004 -3.3499999999999996 7.6500000000000012 10.750000000000002 13.65 13.350000000000003 7.4500000000000011 25.950000000000003 7.2500000000000009
decision_type=2 2 2 2 2 2 2 2 2 2 2 2 2 2 2 2 2 2 2 2 2 2 2 2 2 2 2 2 2 2 2 2 2 2 2 2 2
left_child=1 4 6 10 12 13 8 23 19 21 20 -6 29 33 25 24 31 -16 -15 -2 -3 -7 -13 -5 34 -8 -10 -17 -21 -1 -26 -12 -18 -4 -9 -23 -25
right_child=2 3 5 7 11 9 14 15 26 -11 16 22 -14 18 17 27 32 -19 -20 28 -22 35 -24 36 30 -27 -28 -29 -30 -31 -32 -33 -34 -35 -36 -37 -38
leaf_value=-0.46723694493849044 -0.0050550337780936021 -0.19685352035643405 0.16220058195711543 -0.10929558728168659 -0.28424675870183314 0.28277425187818811 0.087083275046209607 -0.055074374624480602 0.091890643013584475 0.4661709936285805 -0.15166919423892208 -0.22569508535930716 -0.31849112197422041 0.23018369208477632 0.15618769326439799 0 -0.090172554443765124 0.21554813028168199 0.2825894972611358 0.025656378878535703 -0.14768979229431894 0.32429722548392509 -0.16938645415789103 -0.078173819929999944 -0.024356453954906411 0.13627971229710115 0.13115980334068997 0.036579284534733296 0.055938939228723727 -0.38367412242379439 0.0032263940846770783 -0.11939490153789446 -0.056599923071346044 0.20622935059183722 -0.026717854915596428 0.38016577524112571 -0.05191703331691027
leaf_weight=11.000000000000002 18 29 18.000000000000004 23 42 19 13.999999999999998 22 42 10.999999999999998 23 44 26 46 26 11.999999999999998 22 21 26 20 28 32 15.999999999999998 18 32 23 12.999999999999998 27 25 20 17 25 11.999999999999998 12.999999999999998 13.999999999999998 15.999999999999998 19
leaf_count=11 18 29 18 23 42 19 14 22 42 11 23 44 26 46 26 12 22 21 26 20 28 32 16 18 32 23 13 27 25 20 17 25 12 13 14 16 19
internal_value=0 -0.148429 0.186794 -0.0788082 -0.289533 0.281635 0.101582 -0.0342293 0.063079 0.348928 -0.13765 -0.241985 -0.373293 0.230002 0.155326 -0.0107635 -0.112348 0.183663 0.249963 0.0290677 -0.173422 0.328149 -0.211409 -0.0824618 -0.0274089 0.118371 0.101714 0.0253989 0.0427309 -0.416554 -0.0147637 -0.135547 -0.0788473 0.182096 -0.0443515 0.344656 -0.0651539
internal_weight=0 482 383 323 159 181 202 184 118 78 139 102 57 103 84 124 82 47 72 63 57 67 60 60 85 37 55 39 45 31 49 48 34 31 36 48 37
internal_count=865 482 383 323 159 181 202 184 118 78 139 102 57 103 84 124 82 47 72 63 57 67 60 60 85 37 55 39 45 31 49 48 34 31 36 48 37
is_linear=0
shrinkage=0.0874049


Tree=10
num_leaves=32
num_cat=0
split_feature=8 8 8 8 8 8 8 8 8 8 8 8 8 8 8 8 18 8 8 8 8 8 8 8 8 8 8 8 8 8 8
split_gain=2699.94 565.603 343.906 86.8064 86.7582 51.7945 49.6346 13.8485 11.7087 10.2987 9.40417 8.636 6.7772 5.98093 1.80617 1.53078 1.51088 1.36897 1.34303 0.659559 0.619341 0.595103 0.521458 0.407566 0.231085 0.190247 0.154718 0.146824 0.131097 0.0398526 0.0136045
threshold=11.925000000000002 6.6750000000000016 16.950000000000003 9.3250000000000011 2.9250000000000007 14.225000000000001 20.275000000000002 5.2750000000000012 10.575000000000001 18.825000000000006 8.0750000000000028 1.0000000180025095e-35 15.575000000000001 13.050000000000002 11.175000000000002 4.0750000000000002 27.200000000000006 7.3750000000000009 9.8250000000000011 8.7750000000000021 2.2750000000000008 14.775000000000002 13.575000000000001 12.575000000000001 17.625000000000004 6.0750000000000011 10.275000000000002 10.775000000000002 11.525000000000002 10.975000000000001 12.225000000000001
decision_type=2 2 2 2 2 2 2 2 2 2 2 2 2 2 2 2 2 2 2 2 2 2 2 2 2 2 2 2 2 2 2
left_child=1 4 5 10 11 13 9 15 18 24 17 -1 21 23 27 -6 -8 -3 -5 -12 -13 -7 -15 30 -4 -9 -20 -10 -16 -29 -2
right_child=2 3 6 8 7 12 16 25 14 -11 19 20 -14 22 28 -17 -18 -19 26 -21 -22 -23 -24 -25 -26 -27 -28 29 -30 -31 -32
leaf_value=-0.43466849012229664 0.033383868322749775 -0.14797457396396291 0.21469030850548196 -0.058453492047599205 -0.26651159360694882 0.11473301859234633 0.34617652236802304 -0.19294958744685406 -0.019252679545067593 0.29056425982429251 -0.096517200545585838 -0.35157135845452736 0.17515595282076901 0.073304931554430963 0.0062869128997892539 -0.22727064246613621 0.42609819473913468 -0.12014080076549692 -0.039990387913252337 -0.075077744643052696 -0.29626176334038201 0.13892966606057933 0.095298062569044162 0.055506685217433009 0.24353709734597964 -0.16489431902784923 -0.027930396434401893 -0.010920808285634596 0.016506736991666569 -0.003957287475853841 0.041914575221492112
leaf_weight=10.999999999999998 14.999999999999998 39 30 36 31 25 16.000000000000004 37 14.999999999999998 45 42 24 50 21 17 38 12.999999999999998 39 27 25 17 39 31 21 45 19 19 19.000000000000004 27 11.999999999999998 20
leaf_count=11 15 39 30 36 31 25 16 37 15 45 42 24 50 21 17 38 13 39 27 25 17 39 31 21 45 19 19 19 27 12 20
internal_value=0 -0.133783 0.178145 -0.0638056 -0.258854 0.109008 0.280819 -0.218561 -0.0217423 0.254927 -0.113573 -0.35431 0.150106 0.0653808 1.23291e-05 -0.245745 0.385089 -0.134475 -0.0455855 -0.088833 -0.330438 0.129952 0.0868186 0.0451615 0.232708 -0.184173 -0.0352244 -0.0120405 0.0126681 -0.00835521 0.0385674
internal_weight=0 494 371 317 177 222 149 125 172 120 145 52 114 108 90 69 29 78 82 67 41 64 52 56 75 56 46 46 44 31 35
internal_count=865 494 371 317 177 222 149 125 172 120 145 52 114 108 90 69 29 78 82 67 41 64 52 56 75 56 46 46 44 31 35
is_linear=0
shrinkage=0.0874049


Tree=11
num_leaves=31
num_cat=0
split_feature=8 8 8 8 8 8 8 8 8 8 8 8 8 8 8 8 8 8 8 8 8 8 8 8 8 8 8 8 8 8
split_gain=2252.26 472.194 287.103 82.9651 61.6286 46.3884 37.5378 11.9676 10.612 9.05987 7.49629 6.37889 5.84003 4.81106 4.08208 0.915887 0.915227 0.900009 0.831156 0.772859 0.57866 0.337023 0.238744 0.232388 0.0747151 0.072855 0.0528476 0.0366661 0.0131601 0.00910859
threshold=11.925000000000002 6.8750000000000009 16.700000000000003 3.5500000000000003 9.5250000000000021 19.525000000000002 14.125000000000002 5.2750000000000012 1.3750000000000002 8.3000000000000025 21.475000000000005 10.775000000000002 18.025000000000002 15.175000000000002 13.050000000000002 7.6000000000000005 11.325000000000001 6.0750000000000011 8.9750000000000014 10.225000000000001 15.925000000000002 12.575000000000001 13.575000000000001 4.3500000000000005 11.025000000000002 10.575000000000001 11.575000000000001 9.7750000000000021 14.525000000000002 12.225000000000001
decision_type=2 2 2 2 2 2 2 2 2 2 2 2 2 2 2 2 2 2 2 2 2 2 2 2 2 2 2 2 2 2
left_child=1 3 6 8 9 12 14 23 -1 15 -7 19 -4 28 21 -3 24 -9 -11 27 -15 29 -16 -5 -13 -21 -18 -6 -8 -2
right_child=2 4 5 7 11 10 13 17 -10 18 -12 16 -14 20 22 -17 26 -19 -20 25 -22 -23 -24 -25 -26 -27 -28 -29 -30 -31
leaf_value=-0.36602449103210533 0.030508977723551076 -0.12721975781512701 0.1984699919650886 -0.23340202771676033 -0.0483645993418527 0.29389762442459205 0.099250186052192629 -0.17618653967050305 -0.28086783345635941 -0.080792499630217923 0.3824273222883337 -0.0095524210733747145 0.24319235141016629 0.13643400839534803 0.066965484812309933 -0.10392420269171157 0.0086569149865951198 -0.14825233307291943 -0.060277932076122885 -0.026839811032127518 0.16266071631023352 0.050706439507872819 0.084484690471721219 -0.20335358390630992 -0.0011506546478478566 -0.017594712214907115 0.01587879653051031 -0.037945146960821526 0.11600851991916326 0.038291697682646592
leaf_weight=23 14.999999999999998 33 59 30 11.999999999999998 30 19 37 38 37 15.999999999999998 22 54 32 21 46 17 33 37 24 27 21 25 30 13.999999999999998 14.999999999999998 22 24 32 20
leaf_count=23 15 33 59 30 12 30 19 37 38 37 16 22 54 32 21 46 17 33 37 24 27 21 25 30 14 15 22 24 32 20
internal_value=0 -0.122195 0.1627 -0.229753 -0.0542668 0.251447 0.0959326 -0.189615 -0.314242 -0.0932594 0.326454 -0.0143974 0.220304 0.131358 0.0574987 -0.114021 0.00359962 -0.16357 -0.0707831 -0.0323854 0.14905 0.0412678 0.0769063 -0.219234 -0.00638324 -0.0234704 0.0128637 -0.0417673 0.110278 0.0352447
internal_weight=0 494 371 191 303 159 212 130 61 153 46 150 113 110 102 79 75 70 74 75 59 56 46 60 36 39 39 36 51 35
internal_count=865 494 371 191 303 159 212 130 61 153 46 150 113 110 102 79 75 70 74 75 59 56 46 60 36 39 39 36 51 35
is_linear=0
shrinkage=0.0874049


Tree=12
num_leaves=33
num_cat=0
split_feature=8 8 8 8 8 8 8 8 8 8 8 8 8 8 8 10 8 8 8 8 8 8 8 8 8 8 8 8 8 8 7 8
split_gain=1878.48 393.914 239.902 72.2337 48.454 35.8311 35.4012 11.9957 8.65666 8.57912 6.67165 5.32747 5.32597 3.4037 1.58885 1.22984 0.906551 0.689242 0.639254 0.623123 0.511738 0.448522 0.359456 0.347271 0.116408 0.11313 0.08434 0.043377 0.0291151 0.0216105 0.0067601 0.00556564
threshold=11.925000000000002 6.9250000000000016 16.950000000000003 3.6750000000000003 9.5250000000000021 14.125000000000002 20.475000000000005 2.1250000000000004 5.7750000000000012 18.875000000000004 8.3000000000000025 10.675000000000002 15.525000000000002 13.175000000000002 1.0000000180025095e-35 223.50000000000003 11.325000000000001 8.9750000000000014 4.6750000000000016 14.775000000000002 10.225000000000001 7.6000000000000005 12.575000000000001 17.825000000000003 16.025000000000002 13.625000000000002 11.025000000000002 11.575000000000001 9.7750000000000021 10.425000000000002 31.150000000000002 12.225000000000001
decision_type=2 2 2 2 2 2 2 2 2 2 2 2 2 2 2 2 2 2 2 2 2 2 2 2 2 2 2 2 2 2 2 2
left_child=1 3 5 7 10 13 9 14 18 23 21 20 19 22 -1 -8 26 -12 -5 -7 28 -3 31 -4 -14 -15 30 -18 -6 -22 -13 -2
right_child=2 4 6 8 11 12 15 -9 -10 -11 17 16 24 25 -16 -17 27 -19 -20 -21 29 -23 -24 -25 -26 -27 -28 -29 -30 -31 -32 -33
leaf_value=-0.36608361594050548 0.027881661373024308 -0.11384178464498823 0.1803259702478047 -0.20292986878950969 -0.044214922481250314 0.094259665239052645 0.29455373575083188 -0.24199193386873674 -0.14073416512171136 0.24683300230201902 -0.073773420840474072 -0.0069419661033686434 0.12901937831400137 0.063023199445643441 -0.29519330267840554 0.36968208463930641 0.0079101192166934255 -0.055041115331352058 -0.17506251240855314 0.1156143460258026 -0.026639294120189831 -0.094884826051865281 0.047315021265850493 0.20532508268217922 0.15256953254806266 0.077815214074619707 -0.0010516688880987818 0.014504929819289351 -0.034659287433323124 -0.019688500318115958 -0.011214911828245288 0.034981962920565116
leaf_weight=10.999999999999998 14.999999999999998 28 34 34 11.999999999999998 31 14.000000000000002 37 56 45 37 11.000000000000002 17 20 21 10.999999999999998 17 37 37 38 12.999999999999998 46 24 45 34 23 13.999999999999998 22 24 21 15.999999999999998 20
leaf_count=11 15 28 34 34 12 31 14 37 56 45 37 11 17 20 21 11 17 37 37 38 13 46 24 45 34 23 14 22 24 21 16 20
internal_value=0 -0.111596 0.148587 -0.207771 -0.0482227 0.0908402 0.234344 -0.280068 -0.168046 0.214332 -0.0836695 -0.0131587 0.12322 0.0525339 -0.322022 0.330708 0.00222685 -0.0646366 -0.189041 0.106394 -0.0307296 -0.102415 0.0385531 0.19514 0.145369 0.0713576 -0.00679122 0.0117574 -0.0381696 -0.0225784 -0.00963988 0.0322089
internal_weight=0 494 371 196 298 222 149 69 127 124 148 150 120 102 32 25 80 74 71 69 70 74 59 79 51 43 41 39 36 34 27 35
internal_count=865 494 371 196 298 222 149 69 127 124 148 150 120 102 32 25 80 74 71 69 70 74 59 79 51 43 41 39 36 34 27 35
is_linear=0
shrinkage=0.0874049


Tree=13
num_leaves=32
num_cat=0
split_feature=8 8 8 8 8 8 8 8 8 8 8 8 8 8 8 8 8 8 8 8 8 8 8 8 8 8 8 8 8 13 1
split_gain=1567.1 320.356 209.003 52.2969 47.5544 32.9663 29.7751 8.34838 6.56168 6.05193 5.94961 4.46697 3.52798 3.46567 1.67276 0.998932 0.90214 0.85146 0.643736 0.581072 0.581045 0.288992 0.288441 0.12251 0.110254 0.103367 0.0834517 0.0468921 0.0466271 0.014973 0.011585
threshold=11.775000000000002 6.3750000000000009 16.950000000000003 9.2250000000000014 2.5750000000000006 14.125000000000002 20.275000000000002 4.3500000000000005 10.575000000000001 18.825000000000006 7.8250000000000011 15.275000000000002 1.0000000180025095e-35 12.925000000000002 21.925000000000004 5.5250000000000012 9.7750000000000021 11.175000000000002 8.5750000000000011 7.0750000000000011 16.025000000000002 13.525000000000002 12.175000000000002 14.775000000000002 17.625000000000004 10.325000000000001 10.875000000000002 11.525000000000002 12.575000000000001 0.71466676797886841 7.5500000000000007
decision_type=2 2 2 2 2 2 2 2 2 2 2 2 2 2 2 2 2 2 2 2 2 2 2 2 2 2 2 2 2 2 2
left_child=1 4 5 10 12 13 9 -6 16 24 19 23 -1 22 -8 -9 -5 26 -12 -3 -13 -15 -2 -7 -4 -18 30 -19 -24 -28 -10
right_child=2 3 6 8 7 11 14 15 17 -11 18 20 -14 21 -16 -17 25 27 -20 -21 -22 -23 28 -25 -26 -27 29 -29 -30 -31 -32
leaf_value=-0.33472603018506092 0.020614266924417951 -0.11846845099992809 0.16320195011049965 -0.045695032757036617 -0.20314593921493901 0.086080136450543673 0.2639747211329912 -0.16677192742966032 -0.010001290658086855 0.2213304588523162 -0.079795062076724391 0.11589335648047908 -0.2603658268568908 0.053345258713448598 0.33256425898043213 -0.14013550677915704 -0.03060160827983387 0.004791620284226741 -0.061188493175651858 -0.098078501453750577 0.13932166941173621 0.069691641618811001 0.031378993686569198 0.10161024646470825 0.18518387900849498 -0.020671610006166956 -0.0075073915103457678 0.011493367015080736 0.040446755663361846 -0.0025699359643567548 -0.015877714609798421
leaf_weight=10.999999999999998 17 34 30 39 48 31 17.000000000000004 39 11.000000000000002 45 44 30 32 23 11.999999999999998 38 31 17 32 39 34 28 25 25 45 17 13.000000000000002 20 15.999999999999998 10.999999999999998 10.999999999999998
leaf_count=11 17 34 30 39 48 31 17 39 11 45 44 30 32 23 12 38 31 17 32 39 34 28 25 25 45 17 13 20 16 11 11
internal_value=0 -0.103618 0.133501 -0.0520961 -0.201233 0.0809301 0.214037 -0.173288 -0.0189034 0.193989 -0.0898643 0.112536 -0.281087 0.0459512 0.294781 -0.154105 -0.0356445 -0.00127595 -0.0721976 -0.107944 0.128823 0.0626359 0.0310513 0.0934368 0.176938 -0.0272505 -0.00922238 0.00853054 0.0351808 -0.00539504 -0.0131856
internal_weight=0 487 378 319 168 229 149 125 170 120 149 120 43 109 29 77 87 83 76 73 64 51 58 56 75 48 46 37 41 24 22
internal_count=865 487 378 319 168 229 149 125 170 120 149 120 43 109 29 77 87 83 76 73 64 51 58 56 75 48 46 37 41 24 22
is_linear=0
shrinkage=0.0874049


Tree=14
num_leaves=33
num_cat=0
split_feature=8 8 8 8 8 8 8 8 8 8 8 8 8 8 1 8 8 8 8 8 8 8 8 8 8 8 8 8 8 6 14 8
split_gain=1307.32 274.681 166.993 43.4439 41.9194 25.6671 24.6144 7.32725 5.65923 5.61841 4.58317 3.89094 3.69324 2.73049 1.68074 0.86187 0.630756 0.616235 0.607462 0.390322 0.339745 0.304625 0.304019 0.301432 0.0758196 0.0686778 0.0632214 0.0575428 0.0278915 0.00491547 0.00443998 0.000208169
threshold=11.925000000000002 6.6750000000000016 17.050000000000004 2.6750000000000007 9.3250000000000011 14.475000000000001 20.475000000000005 4.8500000000000014 18.875000000000004 10.675000000000002 8.0750000000000028 1.0000000180025095e-35 13.275000000000002 15.925000000000002 16.450000000000006 10.075000000000001 11.325000000000001 5.8750000000000009 7.3750000000000009 3.8500000000000001 15.075000000000001 8.5750000000000011 13.725000000000001 12.575000000000001 17.925000000000001 9.7750000000000021 10.375000000000002 11.025000000000002 11.525000000000002 17.350000000000005 0.37371971479046917 11.675000000000002
decision_type=2 2 2 2 2 2 2 2 2 2 2 2 2 2 2 2 2 2 2 2 2 2 2 2 2 2 2 2 2 2 2 2
left_child=1 3 5 11 10 12 8 19 24 15 18 -1 23 20 -8 25 27 -9 -3 -5 -7 -12 -14 30 -4 -6 -17 29 -18 -11 -2 -30
right_child=2 4 6 7 9 13 14 17 -10 16 21 -13 22 -15 -16 26 28 -19 -20 -21 -22 -23 -24 -25 -26 -27 -28 -29 31 -31 -32 -33
leaf_value=-0.30605444203865584 0.028959256797608496 -0.10271140827676746 0.1529507667811337 -0.19000724798022423 -0.040742692683562912 0.085308949973145781 0.24292922118833235 -0.14200816265699678 0.20578664206494141 -0.0058317782164460288 -0.069345585698026874 -0.23368838069239459 0.055298894661809934 0.12672718047065901 0.31352851047620978 -0.024584232251390607 0.005658655033915075 -0.11842697777072539 -0.083716229884983839 -0.16350294077934441 0.10281707077991369 -0.054878597577206659 0.071431991068595921 0.040270257430688891 0.17248506048394921 -0.030565113406782002 -0.016734201398165192 -0.00090561225579955859 0.0095400286264836747 -0.0095276038321458149 0.022505696649892135 0.013142039392172258
leaf_weight=10.999999999999998 23 39 38 27 34 29 14.000000000000002 37 45 12.000000000000002 30 37 25 39 10.999999999999998 21 11.999999999999998 30 39 35 39 37 30 27 39 13.999999999999998 23 13.999999999999998 14.000000000000002 14.999999999999998 11.999999999999998 12.999999999999998
leaf_count=11 23 39 38 27 34 29 14 37 45 12 30 37 25 39 11 21 12 30 39 35 39 37 30 27 39 14 23 14 14 15 12 13
internal_value=0 -0.0930888 0.123965 -0.18025 -0.04432 0.0763196 0.196324 -0.153264 0.179373 -0.0150841 -0.0789053 -0.251673 0.0478412 0.10727 0.276608 -0.0297892 0.0018309 -0.131918 -0.0935141 -0.17573 0.0956932 -0.0616044 0.0643998 0.0329316 0.163351 -0.0379835 -0.0206446 -0.00568483 0.00978475 -0.00804084 0.0269769 0.0114626
internal_weight=0 494 371 177 317 224 147 129 122 172 145 48 117 107 25 92 80 67 78 62 68 67 55 62 77 48 44 41 39 27 35 27
internal_count=865 494 371 177 317 224 147 129 122 172 145 48 117 107 25 92 80 67 78 62 68 67 55 62 77 48 44 41 39 27 35 27
is_linear=0
shrinkage=0.0874049


Tree=15
num_leaves=32
num_cat=0
split_feature=8 8 8 8 8 8 8 8 8 8 18 8 8 8 8 8 8 8 8 8 8 8 8 8 8 8 8 8 0 8 30
split_gain=1090.55 229.176 139.318 41.2718 31.3003 21.4172 20.8205 5.42074 5.12979 4.76646 3.25253 2.66015 2.63506 2.62101 1.9552 0.826799 0.738953 0.614053 0.341806 0.207319 0.190864 0.160934 0.118382 0.0603136 0.0570531 0.0497688 0.0266487 0.0211918 0.0123061 0.00219671 0.000208829
threshold=11.925000000000002 6.1750000000000016 17.050000000000004 9.2250000000000014 2.4250000000000003 14.275000000000002 19.875000000000004 4.3500000000000005 10.575000000000001 7.6000000000000005 27.200000000000006 18.275000000000002 15.575000000000001 13.175000000000002 1.0000000180025095e-35 8.3000000000000025 11.175000000000002 9.8250000000000011 5.3750000000000009 13.725000000000001 12.575000000000001 15.075000000000001 7.0250000000000012 10.275000000000002 10.825000000000001 11.525000000000002 16.025000000000002 8.7750000000000021 14.550000000000002 12.225000000000001 3.8500000000000001
decision_type=2 2 2 2 2 2 2 2 2 2 2 2 2 2 2 2 2 2 2 2 2 2 2 2 2 2 2 2 2 2 2
left_child=1 4 5 9 14 13 11 -6 17 22 -8 -4 21 20 -1 -11 24 -5 -9 -15 29 -7 -3 -19 -10 -18 -14 -17 -26 -2 -27
right_child=2 3 6 8 7 12 10 18 16 15 -12 -13 26 19 -16 27 25 23 -20 -21 -22 -23 -24 -25 28 30 -28 -29 -30 -31 -32
leaf_value=-0.27983876391533352 0.021198915112943636 -0.10071853702813113 0.14352801576751373 -0.0376627893666081 -0.17056821693617785 0.076642724042455132 0.21159630538966342 -0.1402937595674926 -0.011311568229963723 -0.072229286465028977 0.27818983718970441 0.17484055474188046 0.098772691639193569 0.049842022211886584 -0.22023214867060753 -0.058097766059575284 0.0040566693477075994 -0.025523040060256817 -0.12021242977390938 0.063937919575520349 0.035855774031545759 0.091240932550334261 -0.085727508078722009 -0.01770980173675479 -0.0064866180182876158 0.011718724759976358 0.11659073418378106 -0.048376262721721131 -0.0021216800421741083 0.026854542973220562 0.0082642317967795993
leaf_weight=10.999999999999998 14.999999999999998 38 56 41 51 35 25 35 20 46 12.999999999999998 53 15.999999999999998 28 29 27 17 27 35 24 24 26 25 19 15.000000000000002 16.000000000000004 36 20 10.999999999999998 20 10.999999999999998
leaf_count=11 15 38 56 41 51 35 25 35 20 46 13 53 16 28 29 27 17 27 35 24 24 26 25 19 15 16 36 20 11 20 11
internal_value=0 -0.0850204 0.113223 -0.0435612 -0.170575 0.0697025 0.179315 -0.147813 -0.0146235 -0.0763096 0.235945 0.159105 0.0964996 0.0422599 -0.238158 -0.0633305 0 -0.0297287 -0.130706 0.0566438 0.0293726 0.0832185 -0.0951358 -0.022453 -0.00771171 0.00809269 0.111605 -0.0542649 -0.00477167 0.0246541 0.0104853
internal_weight=0 494 371 333 161 224 147 121 177 156 38 109 113 111 40 93 90 87 70 52 59 61 63 46 46 44 52 47 26 35 27
internal_count=865 494 371 333 161 224 147 121 177 156 38 109 113 111 40 93 90 87 70 52 59 61 63 46 46 44 52 47 26 35 27
is_linear=0
shrinkage=0.0874049


Tree=16
num_leaves=30
num_cat=0
split_feature=8 8 8 8 8 8 8 8 8 8 8 8 8 8 0 8 8 8 8 8 8 8 8 8 0 8 8 8 8
split_gain=909.69 186.174 121.599 32.5113 26.3853 20.0484 16.6728 5.44614 4.01637 3.92084 3.80256 2.49935 2.24042 1.47608 0.99449 0.532631 0.511953 0.496358 0.468672 0.351047 0.1653 0.151476 0.118337 0.0572876 0.0512403 0.0451394 0.0289177 0.0274227 0.0171538
threshold=11.775000000000002 6.1750000000000016 16.700000000000003 9.2250000000000014 2.2750000000000008 19.525000000000002 13.9 4.0750000000000002 7.8250000000000011 21.925000000000004 10.575000000000001 15.175000000000002 18.025000000000002 12.925000000000002 3.0500000000000003 5.2750000000000012 9.7750000000000021 11.175000000000002 7.0750000000000011 8.5750000000000011 12.325000000000001 15.925000000000002 14.525000000000002 10.225000000000001 13.250000000000002 13.525000000000002 12.125000000000002 11.475000000000001 10.925000000000002
decision_type=2 2 2 2 2 2 2 2 2 2 2 2 2 2 2 2 2 2 2 2 2 2 2 2 2 2 2 2 2
left_child=1 4 6 8 14 12 13 -6 18 -7 16 22 -4 20 -1 -9 -5 24 -3 -10 26 -13 -8 -18 -12 -15 -2 -19 -26
right_child=2 3 5 10 7 9 11 15 19 -11 17 21 -14 25 -16 -17 23 27 -20 -21 -22 -23 -24 -25 28 -27 -28 -29 -30
leaf_value=-0.25676618596092876 0.013623407423155867 -0.09139531466917869 0.12573504380766032 -0.034752614687038316 -0.16075739415794571 0.19039033344819353 0.061279713752390219 -0.13125039278674749 -0.060565763047840393 0.25768939618089021 -0.011836326837985356 0.087073743218911551 0.15372949745437836 0.040669934480302219 -0.20586235343374346 -0.11106996451357588 -0.024279263410787653 0.0028791388554371658 -0.074748303770681923 -0.046599036745077926 0.02822677740272754 0.10279049774996921 0.073619386065444339 -0.017008607041905915 -0.0069298543987122577 0.050605848360349946 0.021158411726461355 0.0083052015583262046 -0.0025091422491846259
leaf_weight=10.999999999999998 12.000000000000002 41 59 39 48 34 28 38 44 11.999999999999998 12.999999999999998 32 54 23 24 40 24 12.999999999999998 39 32 31 27 32 24 18 19 14.999999999999998 24 14.999999999999998
leaf_count=11 12 41 59 39 48 34 28 38 44 12 13 32 54 23 24 40 24 13 39 32 31 27 32 24 18 19 15 24 15
internal_value=0 -0.0789406 0.10172 -0.0409008 -0.155785 0.159877 0.0593648 -0.1366 -0.0696914 0.209168 -0.0144091 0.0814762 0.139414 0.0329031 -0.223468 -0.121283 -0.0271536 -0.000982384 -0.0835437 -0.0548732 0.0236183 0.0946718 0.0681533 -0.0207932 -0.00705582 0.0454706 0.0180437 0.0064965 -0.00502816
internal_weight=0 487 378 326 161 159 219 126 156 46 170 119 113 100 35 78 87 83 80 76 58 59 60 48 46 42 27 37 33
internal_count=865 487 378 326 161 159 219 126 156 46 170 119 113 100 35 78 87 83 80 76 58 59 60 48 46 42 27 37 33
is_linear=0
shrinkage=0.0874049


Tree=17
num_leaves=32
num_cat=0
split_feature=8 8 8 8 8 8 8 8 8 8 8 8 8 8 8 8 8 8 8 8 8 8 8 8 8 29 8 8 6 8 10
split_gain=758.79 151.777 105.183 26.6474 21.4714 19.2567 12.823 4.43283 4.22031 3.75246 2.7087 1.90876 1.65204 1.164 0.879659 0.554083 0.403837 0.338376 0.318362 0.159424 0.0826248 0.0772716 0.0752754 0.0540232 0.0419286 0.0117554 0.00802187 0.00776889 0.0024489 0.001245 0.000564071
threshold=11.675000000000002 6.0750000000000011 16.375000000000004 8.8750000000000018 2.2750000000000008 19.150000000000006 13.725000000000001 21.475000000000005 4.0750000000000002 10.325000000000001 7.4750000000000005 17.475000000000005 15.075000000000001 12.725000000000001 1.0000000180025095e-35 11.025000000000002 9.5750000000000011 8.1250000000000018 5.3750000000000009 12.025000000000002 10.675000000000002 14.475000000000001 13.275000000000002 11.325000000000001 6.9250000000000016 7.0500000000000007 10.075000000000001 9.3750000000000018 17.350000000000005 11.525000000000002 273.50000000000006
decision_type=2 2 2 2 2 2 2 2 2 2 2 2 2 2 2 2 2 2 2 2 2 2 2 2 2 2 2 2 2 2 2
left_child=1 4 6 10 14 11 13 -7 -6 16 24 -4 21 19 -1 20 27 -12 -10 -2 25 -8 -15 -17 -3 -11 -18 -5 -22 -25 -21
right_child=2 3 5 9 8 7 12 -9 18 15 17 -13 -14 22 -16 23 26 -19 -20 30 28 -23 -24 29 -26 -27 -28 -29 -30 -31 -32
leaf_value=-0.23506401710958691 0.010916509555675191 -0.085005256811089905 0.10567598106801514 -0.037866023657743303 -0.14677180938637988 0.16656966387859976 0.05433626278539655 0.22669900037969226 -0.11876524967242694 -0.010150042841897812 -0.062519750860790424 0.13157101105108335 0.08217988643029972 0.032352095685495699 -0.18790057989000716 -0.00053597270661098957 -0.024640036676342774 -0.049265711013561156 -0.10105788331230624 0.023339445617874981 -0.0043873988970894876 0.065024655701417897 0.042220151062631529 0.0044228663376428218 -0.073017332729967771 -0.015541427173695955 -0.019190691710686963 -0.031150242216156789 -0.0073178811826379812 0.0071241331405810931 0.018193545298119149
leaf_weight=10.999999999999998 15.999999999999998 38 47 26 48 42 30 15.999999999999998 43 12.000000000000002 38 66 54 20 24 13.999999999999998 22 43 32 27 12.000000000000002 29 25 12.000000000000002 25 14.999999999999998 17 20 14.999999999999998 13.999999999999998 11.999999999999998
leaf_count=11 16 38 47 26 48 42 30 16 43 12 38 66 54 20 24 14 22 43 32 27 12 29 25 12 25 15 17 20 15 14 12
internal_value=0 -0.0731184 0.0916035 -0.0387197 -0.143269 0.142636 0.0505145 0.184011 -0.125569 -0.0161502 -0.0666882 0.121054 0.0706904 0.0275828 -0.2042 -0.00406564 -0.0294384 -0.0556708 -0.111568 0.0188332 -0.00983739 0.0598597 0.0380734 0.00367389 -0.0805649 -0.0133429 -0.0224535 -0.0351671 -0.00615656 0.00602372 0.0219347
internal_weight=0 481 384 323 158 171 213 58 123 179 144 113 113 100 35 94 85 81 75 55 54 59 45 40 63 27 39 46 27 26 39
internal_count=865 481 384 323 158 171 213 58 123 179 144 113 113 100 35 94 85 81 75 55 54 59 45 40 63 27 39 46 27 26 39
is_linear=0
shrinkage=0.0874049


Tree=18
num_leaves=31
num_cat=0
split_feature=8 8 8 8 8 8 8 8 8 0 8 8 10 8 8 8 8 8 8 8 8 8 8 8 8 43 8 8 8 8
split_gain=632.88 133.271 81.289 21.8408 20.2415 12.7505 12.2825 3.04318 2.82653 2.65833 2.53496 2.45171 2.11556 1.51457 1.51231 0.330614 0.325817 0.308512 0.181077 0.17296 0.157999 0.140066 0.084077 0.0689961 0.0303048 0.0299639 0.023012 0.012965 0.0125342 0.0123554
threshold=11.925000000000002 6.6750000000000016 17.050000000000004 2.9250000000000007 9.3750000000000018 20.475000000000005 14.275000000000002 5.1250000000000009 18.875000000000004 3.2500000000000004 8.1250000000000018 10.675000000000002 223.50000000000003 13.050000000000002 15.525000000000002 7.3250000000000002 10.075000000000001 11.325000000000001 5.8750000000000009 3.8500000000000001 8.7750000000000021 13.675000000000002 12.375000000000002 14.775000000000002 10.975000000000001 13.000000000000007 10.425000000000002 9.5750000000000011 17.825000000000003 11.575000000000001
decision_type=2 2 2 2 2 2 2 2 2 2 2 2 2 2 2 2 2 2 2 2 2 2 2 2 2 2 2 2 2 2
left_child=1 3 6 9 10 8 13 19 28 -1 15 16 -7 22 23 -3 27 24 -9 -5 -12 -15 -2 -8 -13 -18 -27 -6 -4 -19
right_child=2 4 5 7 11 12 14 18 -10 -11 20 17 -14 21 -16 -17 25 29 -20 -21 -22 -23 -24 -25 -26 26 -28 -29 -30 -31
leaf_value=-0.2104154544229086 0.017212298992637327 -0.072103011751185123 0.10483088148157498 -0.13059313986058529 -0.02845777754329926 0.16451671830333087 0.055707914090700049 -0.097463712932677485 0.14322659111114586 -0.15852470529806603 -0.045654655760091693 -0.0059609144064274198 0.22835385107949446 0.036729770569984325 0.084573516650596994 -0.058404856757004159 -0.010389717107519878 0.0046197002747895505 -0.082014652585029393 -0.11204960994996564 -0.035426164861616136 0.047781679176848245 0.025100774858238795 0.066825676012412918 -0.00092781432619970278 -0.019044457600950401 -0.012441873313779219 -0.022508129541776157 0.11855298038167345 0.0084143043883171207
leaf_weight=13.999999999999998 24 35 32 23 20 14.000000000000002 22 31 45 38 38 24 10.999999999999998 27 53 47 14.999999999999998 17 30 41 31 28 32 38 17 16.000000000000004 12.999999999999998 22 45 22
leaf_count=14 24 35 32 23 20 14 22 31 45 38 38 24 11 27 53 47 15 17 30 41 31 28 32 38 17 16 13 22 45 22
internal_value=0 -0.0647747 0.0862462 -0.125489 -0.0308016 0.136734 0.0529987 -0.105267 0.124542 -0.173389 -0.0539391 -0.00969497 0.194489 0.0322058 0.0732966 -0.0644637 -0.0199217 0.00129175 -0.0902363 -0.119187 -0.0412261 0.042574 0.0218478 0.0630146 -0.00395264 -0.0144 -0.0162907 -0.0255383 0.113205 0.00686153
internal_weight=0 494 371 177 317 147 224 125 122 52 151 166 25 111 113 82 86 80 61 64 69 55 56 60 41 44 29 42 77 39
internal_count=865 494 371 177 317 147 224 125 122 52 151 166 25 111 113 82 86 80 61 64 69 55 56 60 41 44 29 42 77 39
is_linear=0
shrinkage=0.0874049


Tree=19
num_leaves=32
num_cat=0
split_feature=8 8 8 8 8 8 8 8 1 8 8 8 8 8 8 8 8 8 8 8 8 8 8 8 8 8 8 8 34 49 34
split_gain=527.997 105.657 73.4443 18.5071 15.3344 11.9877 10.4427 2.87224 2.80776 2.3902 2.08584 1.43856 1.3664 1.01943 0.699004 0.345204 0.287241 0.266589 0.132029 0.116866 0.107403 0.107316 0.0920927 0.0494243 0.0431365 0.0375949 0.023717 0.0123826 0.00350133 0.00346405 0.00232607
threshold=11.675000000000002 6.0750000000000011 16.700000000000003 8.9750000000000014 2.2750000000000008 19.525000000000002 13.9 4.2000000000000011 16.450000000000006 10.375000000000002 7.4750000000000005 15.175000000000002 18.275000000000002 12.725000000000001 1.0000000180025095e-35 11.025000000000002 8.3000000000000025 9.5750000000000011 5.2750000000000012 17.275000000000002 12.025000000000002 15.925000000000002 13.275000000000002 14.525000000000002 10.775000000000002 11.425000000000002 6.9250000000000016 10.075000000000001 8.8500000000000032 7.6142857142857148 5.9500000000000011
decision_type=2 2 2 2 2 2 2 2 2 2 2 2 2 2 2 2 2 2 2 2 2 2 2 2 2 2 2 2 2 2 2
left_child=1 4 6 10 14 12 13 -6 -7 17 26 23 19 20 -1 24 -12 -5 -9 -4 -2 -13 -15 -8 29 -17 -3 -19 30 -11 -22
right_child=2 3 5 9 7 8 11 18 -10 15 16 21 -14 22 -16 25 -18 27 -20 -21 28 -23 -24 -25 -26 -27 -28 -29 -30 -31 -32
leaf_value=-0.19771377685946789 0.0091080881272310506 -0.070923241567182244 0.085911933531478468 -0.028706219124035714 -0.12095658964904309 0.14366731241025407 0.04673368499026171 -0.099042811673654224 0.19805835943362116 -0.0084566612525386036 -0.05057136872478938 0.065909046408819602 0.11919817701350618 0.027084623876686999 -0.1569657502820074 0 -0.038883653206657084 -0.020560678588196764 -0.085270737305054661 0.1013497554801126 0.016740072401374387 0.078520071957160029 0.036622835563853075 0.055821569948165194 -0.0045981899336668382 0.0053376834872619463 -0.060873167177302241 -0.01564102401595727 0.014548671880665361 -0.012307784564812029 0.022068174822754645
leaf_weight=10.999999999999998 15.999999999999998 38 21 41 52 33 28 34 12.999999999999998 17.000000000000004 49 32 45 20 24 17 37 22 37 47 15.000000000000002 27 31 32 22 23 25 21 10.999999999999998 10.999999999999998 12.999999999999998
leaf_count=11 16 38 21 41 52 33 28 34 13 17 49 32 45 20 24 17 37 22 37 47 15 27 31 32 22 23 25 21 11 11 13
internal_value=0 -0.0609998 0.0764063 -0.0322976 -0.11953 0.12186 0.0441851 -0.104572 0.159981 -0.0128906 -0.0548902 0.0619596 0.106032 0.0241178 -0.171023 -0.00294638 -0.045687 -0.0234783 -0.0921932 0.0969182 0.0156718 0.0719992 0.0330675 0.0518131 -0.00778767 0.00305117 -0.067206 -0.0183111 0.0182317 -0.0101463 0.0194605
internal_weight=0 481 384 323 158 159 225 123 46 174 149 119 113 106 35 90 86 84 71 68 55 59 51 60 50 40 63 43 39 28 28
internal_count=865 481 384 323 158 159 225 123 46 174 149 119 113 106 35 90 86 84 71 68 55 59 51 60 50 40 63 43 39 28 28
is_linear=0
shrinkage=0.0874049


Tree=20
num_leaves=31
num_cat=0
split_feature=8 8 8 8 8 8 8 8 8 8 8 0 8 8 8 8 8 8 8 8 8 8 8 8 8 8 8 8 13 8
split_gain=440.483 90.2546 59.0688 14.6249 14.2956 9.42316 9.34166 2.29652 1.90372 1.83522 1.71846 1.62748 1.30142 0.965341 0.267225 0.228641 0.213794 0.131434 0.121652 0.0932281 0.0772096 0.0735907 0.0626343 0.0309942 0.0168299 0.0125617 0.0121397 0.0102364 0.00989008 0.00894451
threshold=11.775000000000002 6.3750000000000009 17.050000000000004 9.2250000000000014 2.6750000000000007 14.125000000000002 21.075000000000003 18.925000000000004 4.7250000000000005 10.475000000000001 7.9750000000000005 3.2500000000000004 15.575000000000001 12.925000000000002 11.175000000000002 7.3250000000000002 9.7750000000000021 14.775000000000002 5.8750000000000009 8.5750000000000011 12.325000000000001 13.525000000000002 3.8500000000000001 10.775000000000002 10.225000000000001 17.625000000000004 11.475000000000001 12.125000000000002 0.87795195455888941 16.025000000000002
decision_type=2 2 2 2 2 2 2 2 2 2 2 2 2 2 2 2 2 2 2 2 2 2 2 2 2 2 2 2 2 2
left_child=1 4 5 10 11 13 7 25 22 16 15 -1 17 20 23 -3 -5 -7 -10 -12 27 -15 -6 -11 -18 -4 -16 -2 -25 -14
right_child=2 3 6 9 8 12 -8 -9 18 14 19 -13 29 21 26 -17 24 -19 -20 -21 -22 -23 -24 28 -26 -27 -28 -29 -30 -31
leaf_value=-0.1765578253550352 0.0095024078007698246 -0.061359857314210745 0.086486890783473117 -0.024089427818368821 -0.10992900819276925 0.04553845707785497 0.16883545178342299 0.12066783652459788 -0.083021838137197448 -0.0082351166861366377 -0.040692119111436102 -0.13418887505028607 0.062241242644289874 0.028167764960699462 0.0020256181177041332 -0.0497981475203082 -0.016875109456279284 0.055884137107351226 -0.069105395958419261 -0.032235486779165157 0.019633850666893913 0.036926069925174505 -0.094775166970860969 -0.0049741285633596371 -0.012147388549560462 0.098424195494516697 0.005776729321509042 0.014606725686748281 -0.0014926087555180805 0.073990288697857259
leaf_weight=13.999999999999998 12.000000000000002 44 28 39 27 31 21 48 41 18 35 34 15.999999999999998 23 12.999999999999998 38 24 39 21 32 31 28 31 16.000000000000004 21 50 24 14.999999999999998 14.999999999999998 36
leaf_count=14 12 44 28 39 27 31 21 48 41 18 35 34 16 23 13 38 24 39 21 32 31 28 31 16 21 50 24 15 15 36
internal_value=0 -0.0549361 0.0707774 -0.027584 -0.106751 0.0431293 0.114075 0.104644 -0.0902397 -0.010022 -0.0475588 -0.147364 0.0598221 0.0243376 -0.00100646 -0.0561838 -0.0191944 0.0514992 -0.0786157 -0.0368124 0.0164317 0.0331671 -0.10227 -0.00525423 -0.0147968 0.0944323 0.00454783 0.0125294 -0.0033945 0.0707074
internal_weight=0 487 378 319 168 231 147 126 120 170 149 48 122 109 86 82 84 70 62 67 58 51 58 49 45 78 37 27 31 52
internal_count=865 487 378 319 168 231 147 126 120 170 149 48 122 109 86 82 84 70 62 67 58 51 58 49 45 78 37 27 31 52
is_linear=0
shrinkage=0.0874049


Tree=21
num_leaves=38
num_cat=0
split_feature=0 0 0 1 1 0 0 1 0 0 1 0 1 0 0 1 1 0 1 1 0 0 0 0 0 1 0 0 1 0 1 1 0 0 1 1 1
split_gain=357.038 67.0684 51.0427 11.4229 10.8776 9.67788 7.72535 3.00115 3.00031 2.32936 2.30224 2.17388 2.0153 0.967946 0.962281 0.819955 0.781298 0.66542 0.663202 0.548541 0.4716 0.467902 0.459984 0.415344 0.311398 0.30929 0.247341 0.231678 0.215916 0.141438 0.0985024 0.0880651 0.0875081 0.0822944 0.0807002 0.0601255 0.0599694
threshold=15.050000000000002 9.1500000000000004 21.450000000000003 9.8500000000000032 6.1500000000000012 4.6500000000000012 27.200000000000006 1.0500000000000003 18.800000000000001 12.15 12.450000000000001 12.350000000000003 7.4500000000000011 18.450000000000003 3.0500000000000003 2.2500000000000004 12.250000000000002 24.050000000000004 7.6500000000000012 3.9500000000000006 7.6500000000000012 23.050000000000004 7.9500000000000011 17.150000000000002 10.550000000000002 11.450000000000001 11.450000000000001 13.15 4.5500000000000007 16.450000000000003 8.4500000000000011 5.8500000000000005 13.65 13.550000000000002 15.250000000000002 5.0500000000000007 6.8500000000000005
decision_type=2 2 2 2 2 2 2 2 2 2 2 2 2 2 2 2 2 2 2 2 2 2 2 2 2 2 2 2 2 2 2 2 2 2 2 2 2
left_child=1 5 3 12 9 14 10 22 25 15 21 26 23 29 -1 -3 -10 34 33 -11 -9 -4 -7 31 -17 -5 -6 -20 -22 -14 -29 -2 -21 -13 -12 -26 -35
right_child=2 4 6 8 11 7 -8 20 16 19 17 18 13 -15 -16 24 -18 -19 27 32 28 -23 -24 -25 35 -27 -28 30 -30 -31 -32 -33 -34 36 -36 -37 -38
leaf_value=-0.16660876166988778 -0.0091629178107748357 -0.068825226516231408 0.06321448192361076 0.033977375779127468 -0.032449197811213477 -0.11022906014552622 0.15707167631088248 -0.082848165344323627 0.0547948097781207 -0.041059839204623631 0.089971857424856028 -0.016670182641953375 0.013450207735451794 0.040907016506573399 -0.125724214577837 -0.055590848631885272 0.074868455477140078 0.1144297106656208 -0.006116047130978971 -0.025212249388897212 -0.07115396931594592 0.087640969154397508 -0.087139337076923465 0.014655720340344956 -0.046046448862472257 0.047653525701465999 -0.019436195808145623 -0.00062805465012283075 -0.05186467113024007 0.023521267557181546 0.0083824715302569189 0.00048210461515494295 -0.014318475424684457 -0.012781949269227466 0.10671088202981617 -0.036426932922720298 -0.0033835184616561416
leaf_weight=10.999999999999998 11.000000000000002 20 20 35 26 35 18 35 31 19 41 20 22 24 22 31 43 33 19 22 27 14.999999999999998 18 14.999999999999998 33 28 25 12.999999999999998 10.999999999999998 28 28 19 10.999999999999998 12.000000000000002 14.999999999999998 18 10.999999999999998
leaf_count=11 11 20 20 35 26 35 18 35 31 19 41 20 22 24 22 31 43 33 19 22 27 15 18 15 33 28 25 13 11 28 28 19 11 12 15 18 11
internal_value=0 -0.0518277 0.0608109 0.0374288 -0.0279814 -0.0978998 0.102821 -0.0865019 0.0546303 -0.0443981 0.0946557 -0.0115074 0.0175383 0.0263913 -0.140463 -0.0521321 0.0666849 0.102446 -0.00414982 -0.0290195 -0.0743289 0.0742476 -0.102836 0.00286449 -0.0478526 0.0402438 -0.0262335 0.00175308 -0.0659747 0.019221 0.0054754 -0.00301134 -0.0217795 -0.0124121 0.0949093 -0.0428759 -0.00847362
internal_weight=0 467 398 256 308 159 142 126 137 154 124 154 119 74 33 102 74 89 103 52 73 35 53 45 82 63 51 60 38 50 41 30 33 43 56 51 23
internal_count=865 467 398 256 308 159 142 126 137 154 124 154 119 74 33 102 74 89 103 52 73 35 53 45 82 63 51 60 38 50 41 30 33 43 56 51 23
is_linear=0
shrinkage=0.0874049


Tree=22
num_leaves=33
num_cat=0
split_feature=8 8 8 8 8 1 8 8 8 8 8 1 8 8 8 8 8 8 8 8 8 8 8 18 8 8 4 34 8 8 51 20
split_gain=306.901 64.8203 39.5291 11.055 9.79823 6.86629 5.96064 2.28147 1.91228 1.21739 1.17036 1.08313 0.905118 0.530497 0.183517 0.153178 0.151788 0.126043 0.113316 0.0982546 0.0854585 0.0524225 0.0463652 0.0253802 0.0180994 0.0155358 0.0147785 0.00859217 0.00377704 0.00323173 0.00147203 0.000450121
threshold=11.925000000000002 6.6750000000000016 17.050000000000004 2.5750000000000006 9.3750000000000018 16.450000000000006 14.125000000000002 18.975000000000005 4.7250000000000005 8.0750000000000028 10.675000000000002 -3.3499999999999996 15.275000000000002 12.925000000000002 5.8750000000000009 11.325000000000001 10.075000000000001 7.3750000000000009 3.8500000000000001 16.025000000000002 8.7250000000000014 17.925000000000001 13.575000000000001 12.850000000000003 12.375000000000002 10.975000000000001 2.5000000000000004 8.5500000000000025 14.775000000000002 11.625000000000002 0.6428571428571429 2.5500000000000003
decision_type=2 2 2 2 2 2 2 2 2 2 2 2 2 2 2 2 2 2 2 2 2 2 2 2 2 2 2 2 2 2 2 2
left_child=1 3 6 11 9 7 13 21 18 17 16 -1 28 24 -10 25 26 -3 -5 -14 -11 -4 -15 -18 -2 31 -6 29 -8 -17 -25 -12
right_child=2 4 5 8 10 -7 12 -9 14 20 15 -13 19 22 -16 27 23 -19 -20 -21 -22 -23 -24 30 -26 -27 -28 -29 -30 -31 -32 -33
leaf_value=-0.15263972848548862 0.012134065036413039 -0.04965650546787171 0.07376379330677621 -0.092710482796717397 -0.020420915415746092 0.15661770585973675 0.037992715281782254 0.10478352725590476 -0.069276306546807068 -0.032529151984826483 -0.0031256145305606337 -0.11495008377544287 0.051232951571268871 0.023839348010413191 -0.05693592584212339 0.0040805675126895534 -0.0062981255623920374 -0.040478438657462777 -0.079017482420233695 0.061604558137018241 -0.025174531104690197 0.084036991160452004 0.031026320427431083 -0.013589757655611181 0.016644182222109786 -0.00061344853692884996 -0.015303028434371556 0.0022342686790390422 0.044648965481740022 0.0069971213691511457 -0.0099007432593375185 -0.0053088598251712395
leaf_weight=11.999999999999998 24 39 38 32 18 12.999999999999998 31 49 41 38 13.000000000000002 31 30 26 30 14.000000000000002 13.999999999999998 39 31 36 35 47 25 12.000000000000002 27 17 24 10.999999999999998 25 13.999999999999998 18 10.999999999999998
leaf_count=12 24 39 38 32 18 13 31 49 41 38 13 31 30 26 30 14 14 39 31 36 35 47 25 12 27 17 24 11 25 14 18 11
internal_value=0 -0.0451135 0.0600526 -0.0874574 -0.0214171 0.0952626 0.0368624 0.0890391 -0.0747946 -0.0375161 -0.00672654 -0.126266 0.0499108 0.021155 -0.064294 0.000855078 -0.0137928 -0.0452296 -0.0863177 0.0571186 -0.029126 0.0796808 0.027533 -0.00997819 0.0146343 -0.00282888 -0.017654 0.00478737 0.0411763 0.00567376 -0.0115512 -0.00427206
internal_weight=0 494 371 177 317 147 224 134 134 151 166 43 122 102 71 80 86 78 63 66 73 85 51 44 51 41 42 39 56 28 30 24
internal_count=865 494 371 177 317 147 224 134 134 151 166 43 122 102 71 80 86 78 63 66 73 85 51 44 51 41 42 39 56 28 30 24
is_linear=0
shrinkage=0.0874049


Tree=23
num_leaves=33
num_cat=0
split_feature=8 8 8 8 8 8 8 8 8 8 8 8 8 8 8 1 8 8 8 8 8 8 8 18 45 8 34 54 13 39 0 20
split_gain=256.026 54.1263 32.9536 10.2456 7.13418 5.96697 4.97686 1.81713 1.24027 1.16727 0.890226 0.835622 0.593441 0.592616 0.128838 0.105578 0.0995674 0.0901363 0.0893255 0.0632787 0.0470985 0.0469726 0.0457008 0.0222227 0.0212891 0.0129148 0.00696544 0.00459265 0.00257237 0.00100778 0.000517265 0.000154444
threshold=11.925000000000002 6.825000000000002 17.050000000000004 3.5500000000000003 9.4750000000000014 21.075000000000003 14.275000000000002 1.3750000000000002 18.725000000000005 5.7750000000000012 8.1250000000000018 10.675000000000002 13.175000000000002 15.750000000000002 11.325000000000001 -3.3499999999999996 4.5750000000000002 8.8750000000000018 10.225000000000001 15.075000000000001 13.725000000000001 12.675000000000002 7.4750000000000005 12.850000000000003 2.9166666666666674 10.975000000000001 8.5500000000000025 5.4821428571428585 0.67760851415498091 6.5500000000000007 12.15 2.5500000000000003
decision_type=2 2 2 2 2 2 2 2 2 2 2 2 2 2 2 2 2 2 2 2 2 2 2 2 2 2 2 2 2 2 2 2
left_child=1 3 6 7 10 8 12 15 -4 16 22 18 21 19 25 -1 -5 -12 24 -8 -14 28 -3 -20 -6 31 27 -16 -2 -25 -19 -13
right_child=2 4 5 9 11 -7 13 -9 -10 -11 17 14 20 -15 26 -17 -18 30 23 -21 -22 -23 -24 29 -26 -27 -28 -29 -30 -31 -32 -33
leaf_value=-0.14258992874583851 0.010140072950785371 -0.043237192485101321 0.070714016465707519 -0.075780860294368813 -0.016288726739739853 0.13072160441848921 0.036936676895287658 -0.094169828477614265 0.089703894798745729 -0.052220825285605753 -0.028548853630157744 -0.0028570577300099306 0.023829908948966503 0.054841168976206778 0.0031572085386727569 -0.11298127269640738 -0.065168020755308004 -0.024210531135646248 -0.0044371601461156429 0.044839189076203517 0.030975624486252316 0.0180859667604065 -0.036061570623540602 -0.0079425325341412629 -0.010957143124851975 -0.0005605289915298178 0.0020428882194905651 0.0063038720759040949 0.013549221009933355 -0.011631228435662463 -0.019129970619130715 -0.0048541193793085547
leaf_weight=11.000000000000002 18 32 69 38 29 21 35 38 57 49 43 13.000000000000002 28 45 11.000000000000002 11.999999999999998 41 13.999999999999998 10.999999999999998 33 24 20 38 12.000000000000002 14.999999999999998 17 10.999999999999998 17 21 10.999999999999998 20 10.999999999999998
leaf_count=11 18 32 69 38 29 21 35 38 57 49 43 13 28 45 11 12 41 14 11 33 24 20 38 12 15 17 11 17 21 11 20 11
internal_value=0 -0.0412075 0.0548473 -0.0779381 -0.0183975 0.0869966 0.0336719 -0.107577 0.0794692 -0.0636296 -0.0322451 -0.00547027 0.0204215 0.0465988 0.000778589 -0.128494 -0.0705056 -0.0255154 -0.011896 0.0409442 0.027296 0.0142387 -0.0395061 -0.00825671 -0.014594 -0.00259681 0.00438701 0.00519349 0.0121082 -0.00991249 -0.021442 -0.00391474
internal_weight=0 494 371 189 305 147 224 61 126 128 147 158 111 113 80 23 79 77 78 68 52 59 70 34 44 41 39 28 39 23 34 24
internal_count=865 494 371 189 305 147 224 61 126 128 147 158 111 113 80 23 79 77 78 68 52 59 70 34 44 41 39 28 39 23 34 24
is_linear=0
shrinkage=0.0874049


Tree=24
num_leaves=36
num_cat=0
split_feature=8 8 8 8 8 0 8 8 8 8 8 8 0 8 8 8 8 0 8 8 8 8 8 25 0 32 8 23 53 29 17 55 8 29 0
split_gain=213.582 43.9434 28.724 7.28695 7.18058 5.52762 4.10377 1.95006 1.27832 0.962224 0.802302 0.565113 0.452568 0.39889 0.172329 0.143614 0.116766 0.114533 0.0998074 0.0775361 0.0457824 0.044091 0.0217527 0.0195629 0.0174933 0.0130941 0.011883 0.00627257 0.00592784 0.00540379 0.00338381 0.00337398 0.00287583 0.00280885 0.00205191
threshold=11.775000000000002 6.2750000000000012 16.775000000000002 9.3250000000000011 2.2750000000000008 28.550000000000004 14.025000000000002 18.975000000000005 4.2000000000000011 7.8250000000000011 10.625000000000002 15.175000000000002 3.0500000000000003 12.725000000000001 17.425000000000004 5.7750000000000012 9.9750000000000014 11.350000000000003 11.175000000000002 7.0250000000000012 13.525000000000002 16.025000000000002 12.125000000000002 1.0000000180025095e-35 13.850000000000003 12.175000000000002 8.2250000000000014 18.050000000000004 17.892857142857146 7.4500000000000011 10.925000000000002 2.7250000000000001 9.5250000000000021 8.5500000000000025 12.950000000000001
decision_type=2 2 2 2 2 2 2 2 2 2 2 2 2 2 2 2 2 2 2 2 2 2 2 2 2 2 2 2 2 2 2 2 2 2 2
left_child=1 4 6 9 12 7 13 14 -6 19 16 28 -1 22 -4 -10 32 26 24 -3 27 -13 -2 -18 -12 -26 -11 -15 -8 -20 -31 -24 -5 -25 -19
right_child=2 3 5 10 8 -7 11 -9 15 17 18 21 -14 20 -16 -17 23 34 29 -21 -22 -23 31 33 25 -27 -28 -29 -30 30 -32 -33 -34 -35 -36
leaf_value=-0.12981585518342656 0.006534974612538655 -0.044263939763651998 0.056423678504042174 -0.017283870167132651 -0.076328167646522449 0.13834017211965521 0.03729413748657489 0.087617724605786415 -0.060934096908983208 -0.034485014068628 -0.0056219291788448351 0.042371145209535971 -0.10018340668366675 0.020359980283236809 0.068317646300289428 -0.049771282757819509 -0.012521414037422643 -0.024036613950162749 0.0046408316042828865 -0.036440078425793929 0.025055503150221297 0.050560142871415581 0.012700137270005518 -0.0063241343631581289 0 -0.0038319115403886847 -0.027039914420968453 0.014879061828986786 0.031135702652277376 0.00065069499838504028 0.0032190208420363083 0.0088638308300351739 -0.013546673236639563 -0.0094303684185487284 -0.018955591597229881
leaf_weight=10.999999999999998 11.999999999999998 34 25 22 52 10.999999999999998 18 51 53 13.999999999999998 13.999999999999998 35 24 21 68 25 10.999999999999998 35 14.999999999999998 42 24 28 26 22 15.000000000000002 10.999999999999998 19 10.999999999999998 37 11.000000000000002 10.999999999999998 10.999999999999998 22 10.999999999999998 12.999999999999998
leaf_count=11 12 34 25 22 52 11 18 51 53 14 14 35 24 21 68 25 11 35 15 42 24 28 26 22 15 11 19 11 37 11 11 11 22 11 13
internal_value=0 -0.0382683 0.0492703 -0.0194386 -0.0749229 0.0781633 0.0291179 0.0733405 -0.0651949 -0.0329091 -0.00657851 0.0403123 -0.110337 0.0164539 0.0652914 -0.0575422 -0.0122687 -0.026044 -2.54746e-05 -0.0400939 0.0215427 0.0462179 0.0105143 -0.00886561 -0.0030765 -0.0015717 -0.0304873 0.0186723 0.033341 0.0032027 0.00206979 0.0116888 -0.0155515 -0.00749345 -0.0228083
internal_weight=0 487 378 322 165 155 223 144 130 157 165 118 35 105 93 78 88 81 77 76 56 63 49 44 40 26 33 32 55 37 22 37 44 33 48
internal_count=865 487 378 322 165 155 223 144 130 157 165 118 35 105 93 78 88 81 77 76 56 63 49 44 40 26 33 32 55 37 22 37 44 33 48
is_linear=0
shrinkage=0.0874049


Tree=25
num_leaves=35
num_cat=0
split_feature=8 8 8 8 1 8 8 8 8 8 8 1 8 8 8 8 8 8 8 0 8 23 8 8 27 8 32 18 0 47 30 20 0 7
split_gain=178.211 33.9893 27.077 5.97787 5.57718 5.246 3.25429 2.04881 0.765898 0.750794 0.678637 0.398639 0.367672 0.288785 0.201331 0.159807 0.102302 0.0801316 0.0738931 0.0657656 0.0342542 0.0247969 0.0184965 0.0174236 0.0149906 0.013274 0.0108232 0.0104372 0.00898897 0.0025019 0.00246666 0.000924288 0.000726013 1.00596e-06
threshold=11.525000000000002 5.9250000000000016 16.150000000000002 8.7750000000000021 16.450000000000006 2.2750000000000008 13.725000000000001 18.275000000000002 3.8500000000000001 10.275000000000002 7.4750000000000005 -3.3499999999999996 12.725000000000001 14.825000000000001 19.150000000000006 17.275000000000002 9.5250000000000021 10.975000000000001 12.025000000000002 11.750000000000002 5.1250000000000009 17.450000000000003 8.1250000000000018 6.9250000000000016 9.3750000000000018 10.675000000000002 9.4250000000000025 13.15 14.050000000000002 12.296428571428576 1.8500000000000003 1.6500000000000001 12.15 38.350000000000009
decision_type=2 2 2 2 2 2 2 2 2 2 2 2 2 2 2 2 2 2 2 2 2 2 2 2 2 2 2 2 2 2 2 2 2 2
left_child=1 5 6 10 7 11 12 15 -7 16 23 -1 18 -8 -9 -4 32 25 30 22 -10 -14 -12 -3 -21 27 -19 -11 31 -20 -2 -18 -5 -27
right_child=2 3 4 9 -6 8 13 14 20 17 19 -13 21 -15 -16 -17 28 26 29 24 -22 -23 -24 -25 -26 33 -28 -29 -30 -31 -32 -33 -34 -35
leaf_value=-0.11778830426472875 0.0056019080297150308 -0.04171204745116195 0.048443301328111428 -0.019470491070939823 0.12380911109037208 -0.072093204589144075 0.028073389241307579 0.06673661033482424 -0.059228938882578526 -0.0039357655767190639 -0.032054902038388622 -0.090815256384500026 0.020276739606154705 0.037985329619089146 0.079574965310448664 0.058466185535474315 -0.014131974023349784 0.0025512562012750283 0.011519521158293324 -0.019005603203893693 -0.051079916992862039 0.014419352874639052 -0.025803068633368221 -0.035228364276544459 -0.026233057499722462 -0.0022975931331336006 -0.00079183598424656376 -0.0080649652541155154 -0.0079926894670246957 0.0081116860698329536 0.0031250847429755636 -0.0104353113309923 -0.015731617454042043 -0.0040621200421266188
leaf_weight=11.999999999999998 16.000000000000004 46 39 23 12.999999999999998 40 50 33 41 12.000000000000002 28 23 29 57 45 47 14.000000000000002 12.000000000000002 27 14.000000000000002 34 15.999999999999998 22 25 11.999999999999998 12.000000000000002 17 17 10.999999999999998 11.999999999999998 13.999999999999998 15.999999999999998 24 11.999999999999998
leaf_count=12 16 46 39 23 13 40 50 33 41 12 28 23 29 57 45 47 14 12 27 14 34 16 22 25 12 12 17 17 11 12 14 16 24 12
internal_value=0 -0.0366292 0.0429497 -0.0203717 0.0684149 -0.0708877 0.0224941 0.063845 -0.0615746 -0.00917061 -0.0332742 -0.100828 0.0121468 0.033446 0.0743832 0.0540886 -0.0147757 -0.00310025 0.00802907 -0.0272474 -0.0557323 0.0183327 -0.0294828 -0.0395833 -0.0226351 -0.00511917 0.000512731 -0.00648744 -0.0112838 0.0105888 0.0045627 -0.0123374 -0.0176994 -0.00331519
internal_weight=0 467 398 317 177 150 221 164 115 170 147 35 114 107 78 86 88 82 69 76 75 45 50 71 26 53 29 29 41 39 30 30 47 24
internal_count=865 467 398 317 177 150 221 164 115 170 147 35 114 107 78 86 88 82 69 76 75 45 50 71 26 53 29 29 41 39 30 30 47 24
is_linear=0
shrinkage=0.0874049


Tree=26
num_leaves=32
num_cat=0
split_feature=8 8 8 8 44 8 8 8 8 8 8 8 1 8 8 8 8 8 8 8 0 8 8 49 8 8 25 0 18 55 49
split_gain=148.71 29.9122 20.7247 5.61303 4.48956 4.38878 2.77766 1.33472 0.736401 0.736237 0.621349 0.412933 0.351862 0.217919 0.101796 0.0983759 0.0861212 0.0679002 0.0555981 0.0410132 0.0368153 0.0288546 0.0279192 0.0180377 0.0142 0.012087 0.00907497 0.00718504 0.00896446 0.00298473 0.00176508
threshold=11.675000000000002 5.9250000000000016 16.600000000000005 8.8750000000000018 15.833333333333341 2.1250000000000004 13.725000000000001 18.475000000000005 3.7250000000000005 10.375000000000002 7.4750000000000005 15.175000000000002 -3.3499999999999996 12.725000000000001 19.225000000000005 10.975000000000001 9.5750000000000011 17.375000000000004 8.5000000000000018 5.1250000000000009 11.750000000000002 14.475000000000001 12.025000000000002 7.8642857142857148 11.425000000000002 6.9250000000000016 3.9500000000000006 14.950000000000001 13.550000000000002 2.7250000000000001 7.0500000000000016
decision_type=2 2 2 2 2 2 2 2 2 2 2 2 2 2 2 2 2 2 2 2 2 2 2 2 2 2 2 2 2 2 2
left_child=1 5 6 10 7 12 13 17 -7 16 25 21 -1 22 -9 27 -5 -4 20 -10 -12 -8 -2 -15 -17 -3 -18 28 -11 -24 -26
right_child=2 3 4 9 -6 8 11 14 19 15 18 -13 -14 23 -16 24 26 -19 -20 -21 -22 -23 29 -25 30 -27 -28 -29 -30 -31 -32
leaf_value=-0.11032085309426429 0.0048169243391050498 -0.03808391345542203 0.045472867848490729 -0.015551773421934067 0.11593720669415096 -0.067003919374114498 0.023744909234850304 0.062171887984165397 -0.054404650332690499 -0.0030276223682402918 -0.027910688324859361 0.037791188494008039 -0.083898727589234542 0.020525806367114943 0.072991914301984845 -0.00016166954202321743 -0.0107964220403015 0.054234517219017994 -0.019860284574073482 -0.046644564225451504 -0.020633709892704327 0.029364795052785473 0.010587044752676782 0.0150047122718499 0.0016849224482190369 -0.032176634070734268 -0.0068972471973018515 -0.0018963792018369821 -0.0063462981491525412 0.0072685312160008881 0.0039424814159209273
leaf_weight=10.999999999999998 15.999999999999998 46 28 46 11.999999999999998 40 30 33 44 15.999999999999998 44 55 21 12.999999999999998 42 20 30 48 23 34 13.999999999999998 36 27 32 12.000000000000002 25 12.999999999999998 10.999999999999998 20 11.999999999999998 10.999999999999998
leaf_count=11 16 46 28 46 12 40 30 33 44 16 44 55 21 13 42 20 30 48 23 34 14 36 27 32 12 25 13 11 20 12 11
internal_value=0 -0.0323907 0.0405315 -0.0176853 0.0641698 -0.0647488 0.0230379 0.0598729 -0.0566949 -0.00716329 -0.0300306 0.0319534 -0.0937662 0.0121772 0.0684649 -0.00154883 -0.0127939 0.0511836 -0.0245519 -0.0511984 -0.0262845 0.0269382 0.00833619 0.0167504 0.00142465 -0.0361479 -0.00971887 -0.0043174 -0.00497003 0.00967879 0.00290272
internal_weight=0 481 384 331 163 150 221 151 118 179 152 121 32 100 75 90 89 76 81 78 58 66 55 45 43 71 43 47 36 39 23
internal_count=865 481 384 331 163 150 221 151 118 179 152 121 32 100 75 90 89 76 81 78 58 66 55 45 43 71 43 47 36 39 23
is_linear=0
shrinkage=0.0874049


Tree=27
num_leaves=38
num_cat=0
split_feature=8 8 8 0 8 8 8 8 8 8 8 0 8 8 8 8 8 8 0 18 8 18 8 8 17 27 8 18 33 48 17 34 34 0 0 30 18
split_gain=124.081 23.6409 18.8834 4.27436 4.1557 3.68634 2.23795 1.4803 0.564257 0.525435 0.428951 0.401501 0.254256 0.199008 0.161644 0.0931809 0.0692445 0.0676538 0.0629366 0.0520088 0.0447237 0.0249318 0.0197008 0.01784 0.0165525 0.0133591 0.0106134 0.0101593 0.00836764 0.00785227 0.00707873 0.00385646 0.00313845 0.00299826 0.00217685 0.00200963 0.000921338
threshold=11.525000000000002 5.9250000000000016 16.150000000000002 28.550000000000004 8.7250000000000014 2.2750000000000008 13.725000000000001 18.275000000000002 10.225000000000001 3.8500000000000001 7.3250000000000002 3.0500000000000003 12.675000000000002 14.775000000000002 19.875000000000004 17.275000000000002 9.4750000000000014 10.875000000000002 11.750000000000002 21.300000000000001 12.025000000000002 18.550000000000004 5.2750000000000012 8.1250000000000018 16.375000000000004 9.3750000000000018 11.175000000000002 12.850000000000003 13.450000000000001 15.821428571428575 8.7750000000000021 8.8500000000000032 5.9500000000000011 12.850000000000003 16.650000000000002 1.8500000000000003 19.150000000000002
decision_type=2 2 2 2 2 2 2 2 2 2 2 2 2 2 2 2 2 2 2 2 2 2 2 2 2 2 2 2 2 2 2 2 2 2 2 2 2
left_child=1 5 6 7 10 11 12 15 16 -7 -3 -1 20 36 -9 -4 30 27 23 -15 35 34 -11 -12 -17 -20 28 -10 -19 -29 -6 32 -22 -18 -14 -2 -8
right_child=2 4 3 -5 8 9 13 14 17 22 18 -13 21 19 -16 24 33 26 25 -21 31 -23 -24 -25 -26 -27 -28 29 -30 -31 -32 -33 -34 -35 -36 -37 -38
leaf_value=-0.10123605180668969 0.004773312167241698 -0.033705257687627964 0.040521184628049677 0.11002765535669687 -0.012707653962767709 -0.06008541029499416 0.02411478890088237 0.058100924232780682 -0.0027745945136349202 -0.048987748302509425 -0.027454790615366157 -0.07550094501382916 0.013368862563826675 0.033225989887866833 0.069692179721001599 0.056145690655600967 -0.011746945512357353 0.00010937251239110847 -0.015592813460333501 0.024988703866721414 0.0077134637671862584 0.010735941927584713 -0.042012742301055818 -0.021877923522451596 0.045885835035504009 -0.022224244021231999 0.0013628689152646257 -0.00726104431112886 -0.0029477713764321273 -0.0035845813651883326 -0.01699758929419698 0.0061883409623769 0.011563604456843284 -0.0087552742194350937 0.017853325046054278 0.0025349690673875025 0.018778986925508008
leaf_weight=10.999999999999998 16.000000000000004 62 39 10.999999999999998 15.999999999999998 40 35 53 13.999999999999998 46 35 24 11.999999999999998 46 27 10.999999999999998 19 11.000000000000002 13.000000000000002 14.999999999999998 14.000000000000002 12.999999999999998 29 21 36 11.999999999999998 17 21 12.999999999999998 10.999999999999998 27 10.999999999999998 10.999999999999998 25 23 13.999999999999998 10.999999999999998
leaf_count=11 16 62 39 11 16 40 35 53 14 46 35 24 12 46 27 11 19 11 13 15 14 13 29 21 36 12 17 21 13 11 27 11 11 25 23 14 11
internal_value=0 -0.0305703 0.035832 0.0570992 -0.0170099 -0.0591428 0.0187467 0.0534326 -0.00790084 -0.0513282 -0.0280459 -0.0842556 0.0101596 0.0278314 0.062229 0.0450794 -0.0128782 -0.00287372 -0.0236014 0.0313414 0.00653441 0.0150373 -0.0464583 -0.0255048 0.0485969 -0.019047 -0.000221988 -0.00516919 -0.00145269 -0.00611062 -0.015535 0.00867108 0.00959703 -0.0101582 0.0164836 0.00384019 0.0229917
internal_weight=0 467 398 177 317 150 221 166 174 115 143 35 114 107 80 86 87 87 81 61 66 48 75 56 47 25 41 46 24 32 43 36 25 44 35 30 46
internal_count=865 467 398 177 317 150 221 166 174 115 143 35 114 107 80 86 87 87 81 61 66 48 75 56 47 25 41 46 24 32 43 36 25 44 35 30 46
is_linear=0
shrinkage=0.0874049


Tree=28
num_leaves=37
num_cat=0
split_feature=8 8 8 8 1 8 8 8 0 8 8 8 8 8 47 8 8 8 42 8 8 8 8 8 17 0 25 4 17 33 43 29 29 13 17 10
split_gain=103.572 21.3507 13.9214 3.93831 3.32573 3.10485 1.99276 0.762165 0.606697 0.512814 0.388617 0.343205 0.245833 0.219487 0.0835527 0.0705174 0.0531911 0.0480659 0.0311571 0.0306927 0.0244489 0.0243764 0.0209535 0.0173457 0.0173018 0.0143189 0.0134804 0.00861725 0.00753565 0.00726681 0.00426452 0.0034383 0.00305862 0.00292219 0.00268357 9.64667e-05
threshold=11.775000000000002 6.6750000000000016 16.775000000000002 2.6750000000000007 16.450000000000006 9.3250000000000011 14.125000000000002 18.975000000000005 3.0500000000000003 4.8500000000000014 10.625000000000002 7.9750000000000005 15.475000000000001 13.050000000000002 18.825000000000006 17.475000000000005 9.9750000000000014 11.175000000000002 15.875000000000005 14.525000000000002 8.5750000000000011 5.9250000000000016 12.325000000000001 7.3250000000000002 13.325000000000001 13.450000000000001 1.0000000180025095e-35 4.5000000000000009 17.625000000000004 14.350000000000003 17.350000000000009 7.4500000000000011 8.5500000000000025 0.79356426026969662 10.925000000000002 117.50000000000001
decision_type=2 2 2 2 2 2 2 2 2 2 2 2 2 2 2 2 2 2 2 2 2 2 2 2 2 2 2 2 2 2 2 2 2 2 2 2
left_child=1 3 6 8 7 11 13 15 -1 -5 16 23 18 22 -9 -4 35 25 19 -8 -13 -11 33 -3 -24 -12 -18 30 -14 -27 -15 -19 -28 -2 -33 -7
right_child=2 5 4 9 -6 10 12 14 -10 21 17 20 28 27 -16 -17 26 31 -20 -21 -22 -23 24 -25 -26 29 32 -29 -30 -31 -32 34 -34 -35 -36 -37
leaf_value=-0.092564484348007001 0.0045747716988596473 -0.028853030756232245 0.040038170893560598 -0.048782185442870038 0.097024173951456003 -0.0094239572489195345 0.021152597290349944 0.06448077276529969 -0.065805033372101598 -0.039373200422143761 -0.0048411250326492791 -0.019776427165775073 0.035075359518757676 0.016465584351306555 0.052502307084643145 0.047729329258591253 -0.0091776702139667807 0.0033776726437651661 0.018977138015515913 0.027768614624368766 -0.015402476228260317 -0.032902083722782062 0.011341387475400748 -0.024040952016013046 0.0063387795325838686 0.00029827781004869002 -0.0040319925717583784 0.018477934674490298 0.02759464100391764 -0.0023230658788120618 0.011517763768002487 8.197628719492667e-05 -0.0067374374163582324 0.0075752564694019121 0.002285386647358226 -0.012142985461416761
leaf_weight=10.999999999999998 15.000000000000002 35 31 62 12.999999999999998 24 17 28 37 40 10.999999999999998 35 36 12.000000000000002 21 62 10.999999999999998 14.999999999999998 12.999999999999998 37 37 27 24 38 11.999999999999998 14.000000000000002 22 22 10.999999999999998 14.999999999999998 11.999999999999998 11.000000000000002 10.999999999999998 11.999999999999998 10.999999999999998 20
leaf_count=11 15 35 31 62 13 24 17 28 37 40 11 35 36 12 21 62 11 15 13 37 37 27 24 38 12 14 22 22 11 15 12 11 11 12 11 20
internal_value=0 -0.0266541 0.0343051 -0.0508607 0.0544226 -0.0127979 0.0202699 0.0503575 -0.0723929 -0.042717 -0.00456785 -0.022124 0.0283613 0.0117429 0.0596621 0.0452957 -0.00852804 0 0.0246057 0.0258293 -0.0176191 -0.0369222 0.00825904 -0.0264645 0.00979426 -0.00212467 -0.00618157 0.0163955 0.0335184 -0.000977267 0.0142272 0.00223307 -0.00505042 0.00605399 0.00131103 -0.0107732
internal_weight=0 487 378 177 155 310 223 142 48 129 165 145 114 109 49 93 88 77 67 54 72 67 63 73 36 40 44 46 47 29 24 37 33 27 22 44
internal_count=865 487 378 177 155 310 223 142 48 129 165 145 114 109 49 93 88 77 67 54 72 67 63 73 36 40 44 46 47 29 24 37 33 27 22 44
is_linear=0
shrinkage=0.0874049


Tree=29
num_leaves=38
num_cat=0
split_feature=8 8 8 0 8 8 8 8 8 8 8 0 8 28 8 8 8 8 8 18 29 8 8 18 19 8 8 45 17 50 8 0 18 30 18 49 8
split_gain=86.4471 16.4416 13.1631 3.29227 2.75755 2.74124 1.55349 0.993533 0.483607 0.332098 0.31764 0.20157 0.18854 0.128372 0.121102 0.115155 0.0548834 0.0408386 0.0376503 0.0351254 0.0350709 0.0339226 0.0283163 0.0156178 0.0152582 0.01509 0.0150061 0.0108496 0.00881927 0.00831004 0.00579141 0.00549734 0.00665165 0.00365324 0.00273842 0.00199142 0.000835432
threshold=11.525000000000002 6.0250000000000012 16.150000000000002 28.550000000000004 2.1250000000000004 8.8750000000000018 13.575000000000001 18.275000000000002 3.8500000000000001 10.325000000000001 7.4750000000000005 3.0500000000000003 14.675000000000002 24.050000000000004 12.375000000000002 19.875000000000004 17.275000000000002 9.5250000000000021 10.975000000000001 20.550000000000004 1.0500000000000003 5.3750000000000009 8.5000000000000018 18.450000000000003 11.950000000000001 11.925000000000002 12.925000000000002 2.2166666666666681 13.275000000000002 1.9214285714285728 15.475000000000001 14.950000000000001 13.550000000000002 1.8500000000000003 13.350000000000003 6.4428571428571439 6.9250000000000016
decision_type=2 2 2 2 2 2 2 2 2 2 2 2 2 2 2 2 2 2 2 2 2 2 2 2 2 2 2 2 2 2 2 2 2 2 2 2 2
left_child=1 4 6 7 11 10 14 16 -6 17 36 -1 23 15 25 -9 -4 35 31 30 -12 -10 -22 -8 -18 33 28 -19 -16 -20 -14 32 -11 -2 -29 -7 -3
right_child=2 5 3 -5 8 9 12 13 21 18 20 -13 19 -15 26 -17 24 27 29 -21 22 -23 -24 -25 -26 -27 -28 34 -30 -31 -32 -33 -34 -35 -36 -37 -38
leaf_value=-0.084635698570099088 0.0041179639622448772 -0.028814386859494806 0.033863505644471111 0.094092553955251165 -0.050578832354946569 -0.010668098050501382 0.019761500943664786 0.050403609643756307 -0.040392408195492606 -0.0024244771859973963 -0.012806920671998007 -0.064229916817262311 0.025315962796103538 0.04517149527938534 0.010580454418809161 0.062908201664039973 0.046325591673962087 -0.0096043232159951763 -0.0011443417457758988 0.020955770315878738 -0.020877337920175609 -0.033915462546169492 -0.015422997474922909 0.014710935367535925 0.037830752353098546 0.0063505588260695271 0.012627541269865462 -0.0043607294914545921 0.0062158408893256785 0.0017587676527476687 0.031000669011553128 -0.0013434237453419401 -0.0051558288724613457 0.0015569493420354112 -0.00755086382025411 -0.013965578265285912 -0.024351265666096834
leaf_weight=10.999999999999998 14.000000000000002 41 39 10.999999999999998 43 26 37 33 51 18 10.999999999999998 21 30 29 15.000000000000002 18 12.999999999999998 20 13.000000000000002 17 52 29 18 15.999999999999998 34 24 26 12.000000000000002 11.999999999999998 15.999999999999998 17 10.999999999999998 22 12.999999999999998 10.999999999999998 15.999999999999998 25
leaf_count=11 14 41 39 11 43 26 37 33 51 18 11 21 30 29 15 18 13 20 13 17 52 29 18 16 34 24 26 12 12 16 17 11 22 13 11 16 25
internal_value=0 -0.0255116 0.0299133 0.0476706 -0.048768 -0.0139231 0.0156458 0.0444561 -0.0426183 -0.00615559 -0.0226015 -0.0718647 0.0225604 0.0516843 0.0078105 0.0551234 0.0375854 -0.0099609 -0.00206392 0.025928 -0.0187168 -0.038178 -0.0195651 0.0183535 0.0404437 0.00464883 0.0107722 -0.00780654 0.00880207 0.000370828 0.027564 -0.00349401 -0.00401087 0.00300209 -0.00605511 -0.0120526 -0.0272508
internal_weight=0 467 398 177 155 312 221 166 123 165 147 32 117 80 104 51 86 85 80 64 81 80 70 53 47 51 53 43 27 29 47 51 40 27 23 42 66
internal_count=865 467 398 177 155 312 221 166 123 165 147 32 117 80 104 51 86 85 80 64 81 80 70 53 47 51 53 43 27 29 47 51 40 27 23 42 66
is_linear=0
shrinkage=0.0874049


Tree=30
num_leaves=38
num_cat=0
split_feature=0 0 0 0 44 1 0 1 1 1 1 1 44 0 0 48 0 0 0 0 0 1 1 1 1 1 1 0 0 44 0 0 0 6 1 0 18
split_gain=70.1826 14.4199 9.01866 2.83459 2.76257 1.86213 1.82255 0.908187 0.483695 0.438263 0.437977 0.423386 0.38056 0.316749 0.249063 0.190108 0.144027 0.142037 0.122915 0.11612 0.108466 0.105514 0.0962336 0.0959274 0.0917607 0.0874102 0.0535759 0.0429551 0.0397629 0.0328066 0.0327865 0.029148 0.0275107 0.0187867 0.0253988 0.0167694 0.0159882
threshold=15.550000000000002 9.9500000000000011 21.450000000000003 4.6500000000000012 15.833333333333341 10.750000000000002 12.65 1.0500000000000003 5.1500000000000012 7.1500000000000012 8.4500000000000011 12.550000000000002 -1.9333333333333316 18.800000000000001 7.6500000000000012 24.685714285714287 17.450000000000003 24.450000000000003 16.850000000000005 22.450000000000003 7.9500000000000011 4.6500000000000012 9.2500000000000018 7.1500000000000012 5.9500000000000011 1.8500000000000003 12.250000000000002 14.450000000000001 13.850000000000003 7.1000000000000076 11.750000000000002 13.550000000000002 18.800000000000001 20.950000000000003 12.15 18.650000000000002 16.650000000000002
decision_type=2 2 2 2 2 2 2 2 2 2 2 2 2 2 2 2 2 2 2 2 2 2 2 2 2 2 2 2 2 2 2 2 2 2 2 2 2
left_child=1 3 5 12 11 10 8 20 25 21 18 19 -1 33 -9 17 36 -13 29 -4 -5 -8 28 30 -16 -3 -15 -23 -11 -2 -10 -24 -20 -7 -35 -18 -12
right_child=2 6 4 7 -6 13 9 14 23 22 16 15 -14 26 24 -17 35 -19 32 -21 -22 27 31 -25 -26 -27 -28 -29 -30 -31 -32 -33 -34 34 -36 -37 -38
leaf_value=-0.078306870796748793 -0.0026770506244523846 -0.029902194486050679 0.026399570581855211 -0.048584368513904262 0.085996512504270498 0.015279758779986385 -0.014414968906883707 -0.036873373772308725 -0.016617702822249458 -0.0041181526446805276 0.012755371889916449 0.043610458889653564 -0.055173610106623076 0.025396095590257718 -0.028657721049098868 0.033939976664236482 0.015607046146121836 0.053911361308293 0.0068201827509331674 0.038012732125709117 -0.037920498527199052 -0.0079800124470226809 0.0011424565041009502 -0.0075569150020340682 -0.018640103448139583 -0.020250012117084829 0.033050723091749126 -0.0025166987926284919 0.00098959718324016332 0.0034998161448247592 -0.010935759889389721 0.0068044085164000482 0.012779806147173696 0.018144477414243364 0.026116060437504533 0.020828694639204875 0.0076170265410732286
leaf_weight=11.999999999999998 11.000000000000002 10.999999999999998 15.999999999999998 35 11.999999999999998 10.999999999999998 15.999999999999998 35 26 20 16.000000000000004 50 21 19 54 13.999999999999998 19 26 24 24 21 34 11.999999999999998 30 11.999999999999998 62 43 19 26 14.999999999999998 20 22 10.999999999999998 15.000000000000002 10.999999999999998 26 13.999999999999998
leaf_count=12 11 11 16 35 12 11 16 35 26 20 16 50 21 19 54 14 19 26 24 24 21 34 12 30 12 62 43 19 26 15 20 22 11 15 11 26 14
internal_value=0 -0.0218844 0.0283108 -0.0406916 0.0457033 0.0177567 -0.00986299 -0.0356632 -0.016695 -0.00299894 0.0110573 0.0418224 -0.0641351 0.0268882 -0.0304846 0.0453537 0.0155435 0.0473165 0.00546286 0.0336045 -0.0447984 -0.00809682 0.00137638 -0.0116825 -0.0269444 -0.0218267 0.0308462 -0.00608852 -0.0011849 0.00078819 -0.0142679 0.00490161 0.00883552 0.020041 0.0218095 0.0187691 0.0105167
internal_weight=0 488 377 190 142 235 298 157 149 149 136 130 33 99 101 90 75 76 61 40 56 69 80 76 66 73 62 53 46 26 46 34 35 37 26 45 30
internal_count=865 488 377 190 142 235 298 157 149 149 136 130 33 99 101 90 75 76 61 40 56 69 80 76 66 73 62 53 46 26 46 34 35 37 26 45 30
is_linear=0
shrinkage=0.0874049


Tree=31
num_leaves=38
num_cat=0
split_feature=8 8 8 0 8 8 8 8 1 8 8 8 22 8 8 0 23 0 8 18 8 8 8 8 7 25 18 43 34 40 30 8 13 10 42 18 47
split_gain=60.3089 11.084 9.66062 2.59691 1.88364 1.83965 1.10452 0.761385 0.283315 0.270234 0.256047 0.17267 0.167504 0.11733 0.0956774 0.0866576 0.0685901 0.0429356 0.0342329 0.0309848 0.0227789 0.0220858 0.0166973 0.0159771 0.0157364 0.00981346 0.0109761 0.00876119 0.00821712 0.00715593 0.00514603 0.00488345 0.00482809 0.00329525 0.00242591 0.00153416 0.00118868
